{"epoch_weights": [[-0.025523044168949127, 0.13227054476737976, 0.0047478098422288895, 0.026219593361020088, -0.03794801980257034, -0.08398303389549255, 0.0042872740887105465, 0.0438043586909771, -0.04352840781211853, -0.014079848304390907], [-0.025523044168949127, 0.13227054476737976, 0.0047478098422288895, 0.026219593361020088, -0.03794801980257034, -0.08398303389549255, 0.0042872740887105465, 0.0438043586909771, -0.04352840781211853, -0.014079848304390907], [-0.025523044168949127, 0.13227054476737976, 0.0047478098422288895, 0.026219593361020088, -0.03794801980257034, -0.08398303389549255, 0.0042872740887105465, 0.0438043586909771, -0.04352840781211853, -0.014079848304390907], [-0.025523044168949127, 0.13227054476737976, 0.0047478098422288895, 0.026219593361020088, -0.03794801980257034, -0.08398303389549255, 0.0042872740887105465, 0.0438043586909771, -0.04352840781211853, -0.014079848304390907], [-0.025523044168949127, 0.13227054476737976, 0.0047478098422288895, 0.026219593361020088, -0.03794801980257034, -0.08398303389549255, 0.0042872740887105465, 0.0438043586909771, -0.04352840781211853, -0.014079848304390907], [-0.025523044168949127, 0.13227054476737976, 0.0047478098422288895, 0.026219593361020088, -0.03794801980257034, -0.08398303389549255, 0.0042872740887105465, 0.0438043586909771, -0.04352840781211853, -0.014079848304390907], [-0.025523044168949127, 0.13227054476737976, 0.0047478098422288895, 0.026219593361020088, -0.03794801980257034, -0.08398303389549255, 0.0042872740887105465, 0.0438043586909771, -0.04352840781211853, -0.014079848304390907], [-0.025523044168949127, 0.13227054476737976, 0.0047478098422288895, 0.026219593361020088, -0.03794801980257034, -0.08398303389549255, 0.0042872740887105465, 0.0438043586909771, -0.04352840781211853, -0.014079848304390907], [-0.025523044168949127, 0.13227054476737976, 0.0047478098422288895, 0.026219593361020088, -0.03794801980257034, -0.08398303389549255, 0.0042872740887105465, 0.0438043586909771, -0.04352840781211853, -0.014079848304390907], [-0.025523044168949127, 0.13227054476737976, 0.0047478098422288895, 0.026219593361020088, -0.03794801980257034, -0.08398303389549255, 0.0042872740887105465, 0.0438043586909771, -0.04352840781211853, -0.014079848304390907], [-0.025523044168949127, 0.13227054476737976, 0.0047478098422288895, 0.026219593361020088, -0.03794801980257034, -0.08398303389549255, 0.0042872740887105465, 0.0438043586909771, -0.04352840781211853, -0.014079848304390907], [-0.025523044168949127, 0.13227054476737976, 0.0047478098422288895, 0.026219593361020088, -0.03794801980257034, -0.08398303389549255, 0.0042872740887105465, 0.0438043586909771, -0.04352840781211853, -0.014079848304390907], [-0.025523044168949127, 0.13227054476737976, 0.0047478098422288895, 0.026219593361020088, -0.03794801980257034, -0.08398303389549255, 0.0042872740887105465, 0.0438043586909771, -0.04352840781211853, -0.014079848304390907], [-0.025523044168949127, 0.13227054476737976, 0.0047478098422288895, 0.026219593361020088, -0.03794801980257034, -0.08398303389549255, 0.0042872740887105465, 0.0438043586909771, -0.04352840781211853, -0.014079848304390907], [-0.025523044168949127, 0.13227054476737976, 0.0047478098422288895, 0.026219593361020088, -0.03794801980257034, -0.08398303389549255, 0.0042872740887105465, 0.0438043586909771, -0.04352840781211853, -0.014079848304390907], [-0.025523044168949127, 0.13227054476737976, 0.0047478098422288895, 0.026219593361020088, -0.03794801980257034, -0.08398303389549255, 0.0042872740887105465, 0.0438043586909771, -0.04352840781211853, -0.014079848304390907], [-0.025523044168949127, 0.13227054476737976, 0.0047478098422288895, 0.026219593361020088, -0.03794801980257034, -0.08398303389549255, 0.0042872740887105465, 0.0438043586909771, -0.04352840781211853, -0.014079848304390907], [-0.025523044168949127, 0.13227054476737976, 0.0047478098422288895, 0.026219593361020088, -0.03794801980257034, -0.08398303389549255, 0.0042872740887105465, 0.0438043586909771, -0.04352840781211853, -0.014079848304390907], [-0.025523044168949127, 0.13227054476737976, 0.0047478098422288895, 0.026219593361020088, -0.03794801980257034, -0.08398303389549255, 0.0042872740887105465, 0.0438043586909771, -0.04352840781211853, -0.014079848304390907], [-0.025523044168949127, 0.13227054476737976, 0.0047478098422288895, 0.026219593361020088, -0.03794801980257034, -0.08398303389549255, 0.0042872740887105465, 0.0438043586909771, -0.04352840781211853, -0.014079848304390907], [-0.025523044168949127, 0.13227054476737976, 0.0047478098422288895, 0.026219593361020088, -0.03794801980257034, -0.08398303389549255, 0.0042872740887105465, 0.0438043586909771, -0.04352840781211853, -0.014079848304390907], [-0.025523044168949127, 0.13227054476737976, 0.0047478098422288895, 0.026219593361020088, -0.03794801980257034, -0.08398303389549255, 0.0042872740887105465, 0.0438043586909771, -0.04352840781211853, -0.014079848304390907], [-0.025523044168949127, 0.13227054476737976, 0.0047478098422288895, 0.026219593361020088, -0.03794801980257034, -0.08398303389549255, 0.0042872740887105465, 0.0438043586909771, -0.04352840781211853, -0.014079848304390907], [-0.025523044168949127, 0.13227054476737976, 0.0047478098422288895, 0.026219593361020088, -0.03794801980257034, -0.08398303389549255, 0.0042872740887105465, 0.0438043586909771, -0.04352840781211853, -0.014079848304390907], [-0.025523044168949127, 0.13227054476737976, 0.0047478098422288895, 0.026219593361020088, -0.03794801980257034, -0.08398303389549255, 0.0042872740887105465, 0.0438043586909771, -0.04352840781211853, -0.014079848304390907], [-0.025523044168949127, 0.13227054476737976, 0.0047478098422288895, 0.026219593361020088, -0.03794801980257034, -0.08398303389549255, 0.0042872740887105465, 0.0438043586909771, -0.04352840781211853, -0.014079848304390907], [-0.025523044168949127, 0.13227054476737976, 0.0047478098422288895, 0.026219593361020088, -0.03794801980257034, -0.08398303389549255, 0.0042872740887105465, 0.0438043586909771, -0.04352840781211853, -0.014079848304390907], [-0.025523044168949127, 0.13227054476737976, 0.0047478098422288895, 0.026219593361020088, -0.03794801980257034, -0.08398303389549255, 0.0042872740887105465, 0.0438043586909771, -0.04352840781211853, -0.014079848304390907], [-0.025523044168949127, 0.13227054476737976, 0.0047478098422288895, 0.026219593361020088, -0.03794801980257034, -0.08398303389549255, 0.0042872740887105465, 0.0438043586909771, -0.04352840781211853, -0.014079848304390907], [-0.025523044168949127, 0.13227054476737976, 0.0047478098422288895, 0.026219593361020088, -0.03794801980257034, -0.08398303389549255, 0.0042872740887105465, 0.0438043586909771, -0.04352840781211853, -0.014079848304390907], [-0.025523044168949127, 0.13227054476737976, 0.0047478098422288895, 0.026219593361020088, -0.03794801980257034, -0.08398303389549255, 0.0042872740887105465, 0.0438043586909771, -0.04352840781211853, -0.014079848304390907], [-0.025523044168949127, 0.13227054476737976, 0.0047478098422288895, 0.026219593361020088, -0.03794801980257034, -0.08398303389549255, 0.0042872740887105465, 0.0438043586909771, -0.04352840781211853, -0.014079848304390907], [-0.025523044168949127, 0.13227054476737976, 0.0047478098422288895, 0.026219593361020088, -0.03794801980257034, -0.08398303389549255, 0.0042872740887105465, 0.0438043586909771, -0.04352840781211853, -0.014079848304390907], [-0.025523044168949127, 0.13227054476737976, 0.0047478098422288895, 0.026219593361020088, -0.03794801980257034, -0.08398303389549255, 0.0042872740887105465, 0.0438043586909771, -0.04352840781211853, -0.014079848304390907], [-0.025523044168949127, 0.13227054476737976, 0.0047478098422288895, 0.026219593361020088, -0.03794801980257034, -0.08398303389549255, 0.0042872740887105465, 0.0438043586909771, -0.04352840781211853, -0.014079848304390907], [-0.025523044168949127, 0.13227054476737976, 0.0047478098422288895, 0.026219593361020088, -0.03794801980257034, -0.08398303389549255, 0.0042872740887105465, 0.0438043586909771, -0.04352840781211853, -0.014079848304390907], [-0.025523044168949127, 0.13227054476737976, 0.0047478098422288895, 0.026219593361020088, -0.03794801980257034, -0.08398303389549255, 0.0042872740887105465, 0.0438043586909771, -0.04352840781211853, -0.014079848304390907], [-0.025523044168949127, 0.13227054476737976, 0.0047478098422288895, 0.026219593361020088, -0.03794801980257034, -0.08398303389549255, 0.0042872740887105465, 0.0438043586909771, -0.04352840781211853, -0.014079848304390907], [-0.025523044168949127, 0.13227054476737976, 0.0047478098422288895, 0.026219593361020088, -0.03794801980257034, -0.08398303389549255, 0.0042872740887105465, 0.0438043586909771, -0.04352840781211853, -0.014079848304390907], [-0.025523044168949127, 0.13227054476737976, 0.0047478098422288895, 0.026219593361020088, -0.03794801980257034, -0.08398303389549255, 0.0042872740887105465, 0.0438043586909771, -0.04352840781211853, -0.014079848304390907], [-0.025523044168949127, 0.13227054476737976, 0.0047478098422288895, 0.026219593361020088, -0.03794801980257034, -0.08398303389549255, 0.0042872740887105465, 0.0438043586909771, -0.04352840781211853, -0.014079848304390907], [-0.025523044168949127, 0.13227054476737976, 0.0047478098422288895, 0.026219593361020088, -0.03794801980257034, -0.08398303389549255, 0.0042872740887105465, 0.0438043586909771, -0.04352840781211853, -0.014079848304390907], [-0.025523044168949127, 0.13227054476737976, 0.0047478098422288895, 0.026219593361020088, -0.03794801980257034, -0.08398303389549255, 0.0042872740887105465, 0.0438043586909771, -0.04352840781211853, -0.014079848304390907], [-0.025523044168949127, 0.13227054476737976, 0.0047478098422288895, 0.026219593361020088, -0.03794801980257034, -0.08398303389549255, 0.0042872740887105465, 0.0438043586909771, -0.04352840781211853, -0.014079848304390907], [-0.025523044168949127, 0.13227054476737976, 0.0047478098422288895, 0.026219593361020088, -0.03794801980257034, -0.08398303389549255, 0.0042872740887105465, 0.0438043586909771, -0.04352840781211853, -0.014079848304390907], [-0.025523044168949127, 0.13227054476737976, 0.0047478098422288895, 0.026219593361020088, -0.03794801980257034, -0.08398303389549255, 0.0042872740887105465, 0.0438043586909771, -0.04352840781211853, -0.014079848304390907], [-0.025523044168949127, 0.13227054476737976, 0.0047478098422288895, 0.026219593361020088, -0.03794801980257034, -0.08398303389549255, 0.0042872740887105465, 0.0438043586909771, -0.04352840781211853, -0.014079848304390907], [-0.025523044168949127, 0.13227054476737976, 0.0047478098422288895, 0.026219593361020088, -0.03794801980257034, -0.08398303389549255, 0.0042872740887105465, 0.0438043586909771, -0.04352840781211853, -0.014079848304390907], [-0.025523044168949127, 0.13227054476737976, 0.0047478098422288895, 0.026219593361020088, -0.03794801980257034, -0.08398303389549255, 0.0042872740887105465, 0.0438043586909771, -0.04352840781211853, -0.014079848304390907], [-0.025523044168949127, 0.13227054476737976, 0.0047478098422288895, 0.026219593361020088, -0.03794801980257034, -0.08398303389549255, 0.0042872740887105465, 0.0438043586909771, -0.04352840781211853, -0.014079848304390907], [-0.025523044168949127, 0.13227054476737976, 0.0047478098422288895, 0.026219593361020088, -0.03794801980257034, -0.08398303389549255, 0.0042872740887105465, 0.0438043586909771, -0.04352840781211853, -0.014079848304390907], [-0.025523044168949127, 0.13227054476737976, 0.0047478098422288895, 0.026219593361020088, -0.03794801980257034, -0.08398303389549255, 0.0042872740887105465, 0.0438043586909771, -0.04352840781211853, -0.014079848304390907], [-0.025523044168949127, 0.13227054476737976, 0.0047478098422288895, 0.026219593361020088, -0.03794801980257034, -0.08398303389549255, 0.0042872740887105465, 0.0438043586909771, -0.04352840781211853, -0.014079848304390907], [-0.025523044168949127, 0.13227054476737976, 0.0047478098422288895, 0.026219593361020088, -0.03794801980257034, -0.08398303389549255, 0.0042872740887105465, 0.0438043586909771, -0.04352840781211853, -0.014079848304390907], [-0.025523044168949127, 0.13227054476737976, 0.0047478098422288895, 0.026219593361020088, -0.03794801980257034, -0.08398303389549255, 0.0042872740887105465, 0.0438043586909771, -0.04352840781211853, -0.014079848304390907], [-0.025523044168949127, 0.13227054476737976, 0.0047478098422288895, 0.026219593361020088, -0.03794801980257034, -0.08398303389549255, 0.0042872740887105465, 0.0438043586909771, -0.04352840781211853, -0.014079848304390907], [-0.025523044168949127, 0.13227054476737976, 0.0047478098422288895, 0.026219593361020088, -0.03794801980257034, -0.08398303389549255, 0.0042872740887105465, 0.0438043586909771, -0.04352840781211853, -0.014079848304390907], [-0.025523044168949127, 0.13227054476737976, 0.0047478098422288895, 0.026219593361020088, -0.03794801980257034, -0.08398303389549255, 0.0042872740887105465, 0.0438043586909771, -0.04352840781211853, -0.014079848304390907], [-0.025523044168949127, 0.13227054476737976, 0.0047478098422288895, 0.026219593361020088, -0.03794801980257034, -0.08398303389549255, 0.0042872740887105465, 0.0438043586909771, -0.04352840781211853, -0.014079848304390907], [-0.025523044168949127, 0.13227054476737976, 0.0047478098422288895, 0.026219593361020088, -0.03794801980257034, -0.08398303389549255, 0.0042872740887105465, 0.0438043586909771, -0.04352840781211853, -0.014079848304390907], [-0.025523044168949127, 0.13227054476737976, 0.0047478098422288895, 0.026219593361020088, -0.03794801980257034, -0.08398303389549255, 0.0042872740887105465, 0.0438043586909771, -0.04352840781211853, -0.014079848304390907], [-0.025523044168949127, 0.13227054476737976, 0.0047478098422288895, 0.026219593361020088, -0.03794801980257034, -0.08398303389549255, 0.0042872740887105465, 0.0438043586909771, -0.04352840781211853, -0.014079848304390907], [-0.025523044168949127, 0.13227054476737976, 0.0047478098422288895, 0.026219593361020088, -0.03794801980257034, -0.08398303389549255, 0.0042872740887105465, 0.0438043586909771, -0.04352840781211853, -0.014079848304390907], [-0.025523044168949127, 0.13227054476737976, 0.0047478098422288895, 0.026219593361020088, -0.03794801980257034, -0.08398303389549255, 0.0042872740887105465, 0.0438043586909771, -0.04352840781211853, -0.014079848304390907], [-0.025523044168949127, 0.13227054476737976, 0.0047478098422288895, 0.026219593361020088, -0.03794801980257034, -0.08398303389549255, 0.0042872740887105465, 0.0438043586909771, -0.04352840781211853, -0.014079848304390907], [-0.025523044168949127, 0.13227054476737976, 0.0047478098422288895, 0.026219593361020088, -0.03794801980257034, -0.08398303389549255, 0.0042872740887105465, 0.0438043586909771, -0.04352840781211853, -0.014079848304390907], [-0.025523044168949127, 0.13227054476737976, 0.0047478098422288895, 0.026219593361020088, -0.03794801980257034, -0.08398303389549255, 0.0042872740887105465, 0.0438043586909771, -0.04352840781211853, -0.014079848304390907], [-0.025523044168949127, 0.13227054476737976, 0.0047478098422288895, 0.026219593361020088, -0.03794801980257034, -0.08398303389549255, 0.0042872740887105465, 0.0438043586909771, -0.04352840781211853, -0.014079848304390907], [-0.025523044168949127, 0.13227054476737976, 0.0047478098422288895, 0.026219593361020088, -0.03794801980257034, -0.08398303389549255, 0.0042872740887105465, 0.0438043586909771, -0.04352840781211853, -0.014079848304390907], [-0.025523044168949127, 0.13227054476737976, 0.0047478098422288895, 0.026219593361020088, -0.03794801980257034, -0.08398303389549255, 0.0042872740887105465, 0.0438043586909771, -0.04352840781211853, -0.014079848304390907], [-0.025523044168949127, 0.13227054476737976, 0.0047478098422288895, 0.026219593361020088, -0.03794801980257034, -0.08398303389549255, 0.0042872740887105465, 0.0438043586909771, -0.04352840781211853, -0.014079848304390907], [-0.025523044168949127, 0.13227054476737976, 0.0047478098422288895, 0.026219593361020088, -0.03794801980257034, -0.08398303389549255, 0.0042872740887105465, 0.0438043586909771, -0.04352840781211853, -0.014079848304390907], [-0.025523044168949127, 0.13227054476737976, 0.0047478098422288895, 0.026219593361020088, -0.03794801980257034, -0.08398303389549255, 0.0042872740887105465, 0.0438043586909771, -0.04352840781211853, -0.014079848304390907], [-0.025523044168949127, 0.13227054476737976, 0.0047478098422288895, 0.026219593361020088, -0.03794801980257034, -0.08398303389549255, 0.0042872740887105465, 0.0438043586909771, -0.04352840781211853, -0.014079848304390907], [-0.025523044168949127, 0.13227054476737976, 0.0047478098422288895, 0.026219593361020088, -0.03794801980257034, -0.08398303389549255, 0.0042872740887105465, 0.0438043586909771, -0.04352840781211853, -0.014079848304390907], [-0.025523044168949127, 0.13227054476737976, 0.0047478098422288895, 0.026219593361020088, -0.03794801980257034, -0.08398303389549255, 0.0042872740887105465, 0.0438043586909771, -0.04352840781211853, -0.014079848304390907], [-0.025523044168949127, 0.13227054476737976, 0.0047478098422288895, 0.026219593361020088, -0.03794801980257034, -0.08398303389549255, 0.0042872740887105465, 0.0438043586909771, -0.04352840781211853, -0.014079848304390907], [-0.025523044168949127, 0.13227054476737976, 0.0047478098422288895, 0.026219593361020088, -0.03794801980257034, -0.08398303389549255, 0.0042872740887105465, 0.0438043586909771, -0.04352840781211853, -0.014079848304390907], [-0.025523044168949127, 0.13227054476737976, 0.0047478098422288895, 0.026219593361020088, -0.03794801980257034, -0.08398303389549255, 0.0042872740887105465, 0.0438043586909771, -0.04352840781211853, -0.014079848304390907], [-0.025523044168949127, 0.13227054476737976, 0.0047478098422288895, 0.026219593361020088, -0.03794801980257034, -0.08398303389549255, 0.0042872740887105465, 0.0438043586909771, -0.04352840781211853, -0.014079848304390907], [-0.025523044168949127, 0.13227054476737976, 0.0047478098422288895, 0.026219593361020088, -0.03794801980257034, -0.08398303389549255, 0.0042872740887105465, 0.0438043586909771, -0.04352840781211853, -0.014079848304390907], [-0.025523044168949127, 0.13227054476737976, 0.0047478098422288895, 0.026219593361020088, -0.03794801980257034, -0.08398303389549255, 0.0042872740887105465, 0.0438043586909771, -0.04352840781211853, -0.014079848304390907], [-0.025523044168949127, 0.13227054476737976, 0.0047478098422288895, 0.026219593361020088, -0.03794801980257034, -0.08398303389549255, 0.0042872740887105465, 0.0438043586909771, -0.04352840781211853, -0.014079848304390907], [-0.025523044168949127, 0.13227054476737976, 0.0047478098422288895, 0.026219593361020088, -0.03794801980257034, -0.08398303389549255, 0.0042872740887105465, 0.0438043586909771, -0.04352840781211853, -0.014079848304390907], [-0.025523044168949127, 0.13227054476737976, 0.0047478098422288895, 0.026219593361020088, -0.03794801980257034, -0.08398303389549255, 0.0042872740887105465, 0.0438043586909771, -0.04352840781211853, -0.014079848304390907], [-0.025523044168949127, 0.13227054476737976, 0.0047478098422288895, 0.026219593361020088, -0.03794801980257034, -0.08398303389549255, 0.0042872740887105465, 0.0438043586909771, -0.04352840781211853, -0.014079848304390907], [-0.025523044168949127, 0.13227054476737976, 0.0047478098422288895, 0.026219593361020088, -0.03794801980257034, -0.08398303389549255, 0.0042872740887105465, 0.0438043586909771, -0.04352840781211853, -0.014079848304390907], [-0.025523044168949127, 0.13227054476737976, 0.0047478098422288895, 0.026219593361020088, -0.03794801980257034, -0.08398303389549255, 0.0042872740887105465, 0.0438043586909771, -0.04352840781211853, -0.014079848304390907], [-0.025523044168949127, 0.13227054476737976, 0.0047478098422288895, 0.026219593361020088, -0.03794801980257034, -0.08398303389549255, 0.0042872740887105465, 0.0438043586909771, -0.04352840781211853, -0.014079848304390907], [-0.025523044168949127, 0.13227054476737976, 0.0047478098422288895, 0.026219593361020088, -0.03794801980257034, -0.08398303389549255, 0.0042872740887105465, 0.0438043586909771, -0.04352840781211853, -0.014079848304390907], [-0.025523044168949127, 0.13227054476737976, 0.0047478098422288895, 0.026219593361020088, -0.03794801980257034, -0.08398303389549255, 0.0042872740887105465, 0.0438043586909771, -0.04352840781211853, -0.014079848304390907], [-0.025523044168949127, 0.13227054476737976, 0.0047478098422288895, 0.026219593361020088, -0.03794801980257034, -0.08398303389549255, 0.0042872740887105465, 0.0438043586909771, -0.04352840781211853, -0.014079848304390907], [-0.025523044168949127, 0.13227054476737976, 0.0047478098422288895, 0.026219593361020088, -0.03794801980257034, -0.08398303389549255, 0.0042872740887105465, 0.0438043586909771, -0.04352840781211853, -0.014079848304390907], [-0.025523044168949127, 0.13227054476737976, 0.0047478098422288895, 0.026219593361020088, -0.03794801980257034, -0.08398303389549255, 0.0042872740887105465, 0.0438043586909771, -0.04352840781211853, -0.014079848304390907], [-0.025523044168949127, 0.13227054476737976, 0.0047478098422288895, 0.026219593361020088, -0.03794801980257034, -0.08398303389549255, 0.0042872740887105465, 0.0438043586909771, -0.04352840781211853, -0.014079848304390907], [-0.025523044168949127, 0.13227054476737976, 0.0047478098422288895, 0.026219593361020088, -0.03794801980257034, -0.08398303389549255, 0.0042872740887105465, 0.0438043586909771, -0.04352840781211853, -0.014079848304390907], [-0.025523044168949127, 0.13227054476737976, 0.0047478098422288895, 0.026219593361020088, -0.03794801980257034, -0.08398303389549255, 0.0042872740887105465, 0.0438043586909771, -0.04352840781211853, -0.014079848304390907], [-0.025523044168949127, 0.13227054476737976, 0.0047478098422288895, 0.026219593361020088, -0.03794801980257034, -0.08398303389549255, 0.0042872740887105465, 0.0438043586909771, -0.04352840781211853, -0.014079848304390907], [-0.025523044168949127, 0.13227054476737976, 0.0047478098422288895, 0.026219593361020088, -0.03794801980257034, -0.08398303389549255, 0.0042872740887105465, 0.0438043586909771, -0.04352840781211853, -0.014079848304390907], [-0.025523044168949127, 0.13227054476737976, 0.0047478098422288895, 0.026219593361020088, -0.03794801980257034, -0.08398303389549255, 0.0042872740887105465, 0.0438043586909771, -0.04352840781211853, -0.014079848304390907], [-0.025523044168949127, 0.13227054476737976, 0.0047478098422288895, 0.026219593361020088, -0.03794801980257034, -0.08398303389549255, 0.0042872740887105465, 0.0438043586909771, -0.04352840781211853, -0.014079848304390907], [-0.025523044168949127, 0.13227054476737976, 0.0047478098422288895, 0.026219593361020088, -0.03794801980257034, -0.08398303389549255, 0.0042872740887105465, 0.0438043586909771, -0.04352840781211853, -0.014079848304390907], [-0.025523044168949127, 0.13227054476737976, 0.0047478098422288895, 0.026219593361020088, -0.03794801980257034, -0.08398303389549255, 0.0042872740887105465, 0.0438043586909771, -0.04352840781211853, -0.014079848304390907], [-0.025523044168949127, 0.13227054476737976, 0.0047478098422288895, 0.026219593361020088, -0.03794801980257034, -0.08398303389549255, 0.0042872740887105465, 0.0438043586909771, -0.04352840781211853, -0.014079848304390907], [-0.025523044168949127, 0.13227054476737976, 0.0047478098422288895, 0.026219593361020088, -0.03794801980257034, -0.08398303389549255, 0.0042872740887105465, 0.0438043586909771, -0.04352840781211853, -0.014079848304390907], [-0.025523044168949127, 0.13227054476737976, 0.0047478098422288895, 0.026219593361020088, -0.03794801980257034, -0.08398303389549255, 0.0042872740887105465, 0.0438043586909771, -0.04352840781211853, -0.014079848304390907], [-0.025523044168949127, 0.13227054476737976, 0.0047478098422288895, 0.026219593361020088, -0.03794801980257034, -0.08398303389549255, 0.0042872740887105465, 0.0438043586909771, -0.04352840781211853, -0.014079848304390907], [-0.025523044168949127, 0.13227054476737976, 0.0047478098422288895, 0.026219593361020088, -0.03794801980257034, -0.08398303389549255, 0.0042872740887105465, 0.0438043586909771, -0.04352840781211853, -0.014079848304390907], [-0.025523044168949127, 0.13227054476737976, 0.0047478098422288895, 0.026219593361020088, -0.03794801980257034, -0.08398303389549255, 0.0042872740887105465, 0.0438043586909771, -0.04352840781211853, -0.014079848304390907], [-0.025523044168949127, 0.13227054476737976, 0.0047478098422288895, 0.026219593361020088, -0.03794801980257034, -0.08398303389549255, 0.0042872740887105465, 0.0438043586909771, -0.04352840781211853, -0.014079848304390907], [-0.025523044168949127, 0.13227054476737976, 0.0047478098422288895, 0.026219593361020088, -0.03794801980257034, -0.08398303389549255, 0.0042872740887105465, 0.0438043586909771, -0.04352840781211853, -0.014079848304390907], [-0.025523044168949127, 0.13227054476737976, 0.0047478098422288895, 0.026219593361020088, -0.03794801980257034, -0.08398303389549255, 0.0042872740887105465, 0.0438043586909771, -0.04352840781211853, -0.014079848304390907], [-0.025523044168949127, 0.13227054476737976, 0.0047478098422288895, 0.026219593361020088, -0.03794801980257034, -0.08398303389549255, 0.0042872740887105465, 0.0438043586909771, -0.04352840781211853, -0.014079848304390907], [-0.025523044168949127, 0.13227054476737976, 0.0047478098422288895, 0.026219593361020088, -0.03794801980257034, -0.08398303389549255, 0.0042872740887105465, 0.0438043586909771, -0.04352840781211853, -0.014079848304390907], [-0.025523044168949127, 0.13227054476737976, 0.0047478098422288895, 0.026219593361020088, -0.03794801980257034, -0.08398303389549255, 0.0042872740887105465, 0.0438043586909771, -0.04352840781211853, -0.014079848304390907], [-0.025523044168949127, 0.13227054476737976, 0.0047478098422288895, 0.026219593361020088, -0.03794801980257034, -0.08398303389549255, 0.0042872740887105465, 0.0438043586909771, -0.04352840781211853, -0.014079848304390907], [-0.025523044168949127, 0.13227054476737976, 0.0047478098422288895, 0.026219593361020088, -0.03794801980257034, -0.08398303389549255, 0.0042872740887105465, 0.0438043586909771, -0.04352840781211853, -0.014079848304390907], [-0.025523044168949127, 0.13227054476737976, 0.0047478098422288895, 0.026219593361020088, -0.03794801980257034, -0.08398303389549255, 0.0042872740887105465, 0.0438043586909771, -0.04352840781211853, -0.014079848304390907], [-0.025523044168949127, 0.13227054476737976, 0.0047478098422288895, 0.026219593361020088, -0.03794801980257034, -0.08398303389549255, 0.0042872740887105465, 0.0438043586909771, -0.04352840781211853, -0.014079848304390907], [-0.025523044168949127, 0.13227054476737976, 0.0047478098422288895, 0.026219593361020088, -0.03794801980257034, -0.08398303389549255, 0.0042872740887105465, 0.0438043586909771, -0.04352840781211853, -0.014079848304390907], [-0.025523044168949127, 0.13227054476737976, 0.0047478098422288895, 0.026219593361020088, -0.03794801980257034, -0.08398303389549255, 0.0042872740887105465, 0.0438043586909771, -0.04352840781211853, -0.014079848304390907], [-0.025523044168949127, 0.13227054476737976, 0.0047478098422288895, 0.026219593361020088, -0.03794801980257034, -0.08398303389549255, 0.0042872740887105465, 0.0438043586909771, -0.04352840781211853, -0.014079848304390907], [-0.025523044168949127, 0.13227054476737976, 0.0047478098422288895, 0.026219593361020088, -0.03794801980257034, -0.08398303389549255, 0.0042872740887105465, 0.0438043586909771, -0.04352840781211853, -0.014079848304390907], [-0.025523044168949127, 0.13227054476737976, 0.0047478098422288895, 0.026219593361020088, -0.03794801980257034, -0.08398303389549255, 0.0042872740887105465, 0.0438043586909771, -0.04352840781211853, -0.014079848304390907], [-0.025523044168949127, 0.13227054476737976, 0.0047478098422288895, 0.026219593361020088, -0.03794801980257034, -0.08398303389549255, 0.0042872740887105465, 0.0438043586909771, -0.04352840781211853, -0.014079848304390907], [-0.025523044168949127, 0.13227054476737976, 0.0047478098422288895, 0.026219593361020088, -0.03794801980257034, -0.08398303389549255, 0.0042872740887105465, 0.0438043586909771, -0.04352840781211853, -0.014079848304390907], [-0.025523044168949127, 0.13227054476737976, 0.0047478098422288895, 0.026219593361020088, -0.03794801980257034, -0.08398303389549255, 0.0042872740887105465, 0.0438043586909771, -0.04352840781211853, -0.014079848304390907], [-0.025523044168949127, 0.13227054476737976, 0.0047478098422288895, 0.026219593361020088, -0.03794801980257034, -0.08398303389549255, 0.0042872740887105465, 0.0438043586909771, -0.04352840781211853, -0.014079848304390907], [-0.025523044168949127, 0.13227054476737976, 0.0047478098422288895, 0.026219593361020088, -0.03794801980257034, -0.08398303389549255, 0.0042872740887105465, 0.0438043586909771, -0.04352840781211853, -0.014079848304390907], [-0.025523044168949127, 0.13227054476737976, 0.0047478098422288895, 0.026219593361020088, -0.03794801980257034, -0.08398303389549255, 0.0042872740887105465, 0.0438043586909771, -0.04352840781211853, -0.014079848304390907], [-0.025523044168949127, 0.13227054476737976, 0.0047478098422288895, 0.026219593361020088, -0.03794801980257034, -0.08398303389549255, 0.0042872740887105465, 0.0438043586909771, -0.04352840781211853, -0.014079848304390907], [-0.025523044168949127, 0.13227054476737976, 0.0047478098422288895, 0.026219593361020088, -0.03794801980257034, -0.08398303389549255, 0.0042872740887105465, 0.0438043586909771, -0.04352840781211853, -0.014079848304390907], [-0.025523044168949127, 0.13227054476737976, 0.0047478098422288895, 0.026219593361020088, -0.03794801980257034, -0.08398303389549255, 0.0042872740887105465, 0.0438043586909771, -0.04352840781211853, -0.014079848304390907], [-0.025523044168949127, 0.13227054476737976, 0.0047478098422288895, 0.026219593361020088, -0.03794801980257034, -0.08398303389549255, 0.0042872740887105465, 0.0438043586909771, -0.04352840781211853, -0.014079848304390907], [-0.025523044168949127, 0.13227054476737976, 0.0047478098422288895, 0.026219593361020088, -0.03794801980257034, -0.08398303389549255, 0.0042872740887105465, 0.0438043586909771, -0.04352840781211853, -0.014079848304390907], [-0.025523044168949127, 0.13227054476737976, 0.0047478098422288895, 0.026219593361020088, -0.03794801980257034, -0.08398303389549255, 0.0042872740887105465, 0.0438043586909771, -0.04352840781211853, -0.014079848304390907], [-0.025523044168949127, 0.13227054476737976, 0.0047478098422288895, 0.026219593361020088, -0.03794801980257034, -0.08398303389549255, 0.0042872740887105465, 0.0438043586909771, -0.04352840781211853, -0.014079848304390907], [-0.025523044168949127, 0.13227054476737976, 0.0047478098422288895, 0.026219593361020088, -0.03794801980257034, -0.08398303389549255, 0.0042872740887105465, 0.0438043586909771, -0.04352840781211853, -0.014079848304390907], [-0.025523044168949127, 0.13227054476737976, 0.0047478098422288895, 0.026219593361020088, -0.03794801980257034, -0.08398303389549255, 0.0042872740887105465, 0.0438043586909771, -0.04352840781211853, -0.014079848304390907], [-0.025523044168949127, 0.13227054476737976, 0.0047478098422288895, 0.026219593361020088, -0.03794801980257034, -0.08398303389549255, 0.0042872740887105465, 0.0438043586909771, -0.04352840781211853, -0.014079848304390907], [-0.025523044168949127, 0.13227054476737976, 0.0047478098422288895, 0.026219593361020088, -0.03794801980257034, -0.08398303389549255, 0.0042872740887105465, 0.0438043586909771, -0.04352840781211853, -0.014079848304390907], [-0.025523044168949127, 0.13227054476737976, 0.0047478098422288895, 0.026219593361020088, -0.03794801980257034, -0.08398303389549255, 0.0042872740887105465, 0.0438043586909771, -0.04352840781211853, -0.014079848304390907], [-0.025523044168949127, 0.13227054476737976, 0.0047478098422288895, 0.026219593361020088, -0.03794801980257034, -0.08398303389549255, 0.0042872740887105465, 0.0438043586909771, -0.04352840781211853, -0.014079848304390907], [-0.025523044168949127, 0.13227054476737976, 0.0047478098422288895, 0.026219593361020088, -0.03794801980257034, -0.08398303389549255, 0.0042872740887105465, 0.0438043586909771, -0.04352840781211853, -0.014079848304390907], [-0.025523044168949127, 0.13227054476737976, 0.0047478098422288895, 0.026219593361020088, -0.03794801980257034, -0.08398303389549255, 0.0042872740887105465, 0.0438043586909771, -0.04352840781211853, -0.014079848304390907], [-0.025523044168949127, 0.13227054476737976, 0.0047478098422288895, 0.026219593361020088, -0.03794801980257034, -0.08398303389549255, 0.0042872740887105465, 0.0438043586909771, -0.04352840781211853, -0.014079848304390907], [-0.025523044168949127, 0.13227054476737976, 0.0047478098422288895, 0.026219593361020088, -0.03794801980257034, -0.08398303389549255, 0.0042872740887105465, 0.0438043586909771, -0.04352840781211853, -0.014079848304390907], [-0.025523044168949127, 0.13227054476737976, 0.0047478098422288895, 0.026219593361020088, -0.03794801980257034, -0.08398303389549255, 0.0042872740887105465, 0.0438043586909771, -0.04352840781211853, -0.014079848304390907], [-0.025523044168949127, 0.13227054476737976, 0.0047478098422288895, 0.026219593361020088, -0.03794801980257034, -0.08398303389549255, 0.0042872740887105465, 0.0438043586909771, -0.04352840781211853, -0.014079848304390907], [-0.025523044168949127, 0.13227054476737976, 0.0047478098422288895, 0.026219593361020088, -0.03794801980257034, -0.08398303389549255, 0.0042872740887105465, 0.0438043586909771, -0.04352840781211853, -0.014079848304390907], [-0.025523044168949127, 0.13227054476737976, 0.0047478098422288895, 0.026219593361020088, -0.03794801980257034, -0.08398303389549255, 0.0042872740887105465, 0.0438043586909771, -0.04352840781211853, -0.014079848304390907], [-0.025523044168949127, 0.13227054476737976, 0.0047478098422288895, 0.026219593361020088, -0.03794801980257034, -0.08398303389549255, 0.0042872740887105465, 0.0438043586909771, -0.04352840781211853, -0.014079848304390907], [-0.025523044168949127, 0.13227054476737976, 0.0047478098422288895, 0.026219593361020088, -0.03794801980257034, -0.08398303389549255, 0.0042872740887105465, 0.0438043586909771, -0.04352840781211853, -0.014079848304390907], [-0.025523044168949127, 0.13227054476737976, 0.0047478098422288895, 0.026219593361020088, -0.03794801980257034, -0.08398303389549255, 0.0042872740887105465, 0.0438043586909771, -0.04352840781211853, -0.014079848304390907], [-0.025523044168949127, 0.13227054476737976, 0.0047478098422288895, 0.026219593361020088, -0.03794801980257034, -0.08398303389549255, 0.0042872740887105465, 0.0438043586909771, -0.04352840781211853, -0.014079848304390907], [-0.025523044168949127, 0.13227054476737976, 0.0047478098422288895, 0.026219593361020088, -0.03794801980257034, -0.08398303389549255, 0.0042872740887105465, 0.0438043586909771, -0.04352840781211853, -0.014079848304390907], [-0.025523044168949127, 0.13227054476737976, 0.0047478098422288895, 0.026219593361020088, -0.03794801980257034, -0.08398303389549255, 0.0042872740887105465, 0.0438043586909771, -0.04352840781211853, -0.014079848304390907], [-0.025523044168949127, 0.13227054476737976, 0.0047478098422288895, 0.026219593361020088, -0.03794801980257034, -0.08398303389549255, 0.0042872740887105465, 0.0438043586909771, -0.04352840781211853, -0.014079848304390907], [-0.025523044168949127, 0.13227054476737976, 0.0047478098422288895, 0.026219593361020088, -0.03794801980257034, -0.08398303389549255, 0.0042872740887105465, 0.0438043586909771, -0.04352840781211853, -0.014079848304390907], [-0.025523044168949127, 0.13227054476737976, 0.0047478098422288895, 0.026219593361020088, -0.03794801980257034, -0.08398303389549255, 0.0042872740887105465, 0.0438043586909771, -0.04352840781211853, -0.014079848304390907], [-0.025523044168949127, 0.13227054476737976, 0.0047478098422288895, 0.026219593361020088, -0.03794801980257034, -0.08398303389549255, 0.0042872740887105465, 0.0438043586909771, -0.04352840781211853, -0.014079848304390907], [-0.025523044168949127, 0.13227054476737976, 0.0047478098422288895, 0.026219593361020088, -0.03794801980257034, -0.08398303389549255, 0.0042872740887105465, 0.0438043586909771, -0.04352840781211853, -0.014079848304390907], [-0.025523044168949127, 0.13227054476737976, 0.0047478098422288895, 0.026219593361020088, -0.03794801980257034, -0.08398303389549255, 0.0042872740887105465, 0.0438043586909771, -0.04352840781211853, -0.014079848304390907], [-0.025523044168949127, 0.13227054476737976, 0.0047478098422288895, 0.026219593361020088, -0.03794801980257034, -0.08398303389549255, 0.0042872740887105465, 0.0438043586909771, -0.04352840781211853, -0.014079848304390907], [-0.025523044168949127, 0.13227054476737976, 0.0047478098422288895, 0.026219593361020088, -0.03794801980257034, -0.08398303389549255, 0.0042872740887105465, 0.0438043586909771, -0.04352840781211853, -0.014079848304390907], [-0.025523044168949127, 0.13227054476737976, 0.0047478098422288895, 0.026219593361020088, -0.03794801980257034, -0.08398303389549255, 0.0042872740887105465, 0.0438043586909771, -0.04352840781211853, -0.014079848304390907], [-0.025523044168949127, 0.13227054476737976, 0.0047478098422288895, 0.026219593361020088, -0.03794801980257034, -0.08398303389549255, 0.0042872740887105465, 0.0438043586909771, -0.04352840781211853, -0.014079848304390907], [-0.025523044168949127, 0.13227054476737976, 0.0047478098422288895, 0.026219593361020088, -0.03794801980257034, -0.08398303389549255, 0.0042872740887105465, 0.0438043586909771, -0.04352840781211853, -0.014079848304390907], [-0.025523044168949127, 0.13227054476737976, 0.0047478098422288895, 0.026219593361020088, -0.03794801980257034, -0.08398303389549255, 0.0042872740887105465, 0.0438043586909771, -0.04352840781211853, -0.014079848304390907], [-0.025523044168949127, 0.13227054476737976, 0.0047478098422288895, 0.026219593361020088, -0.03794801980257034, -0.08398303389549255, 0.0042872740887105465, 0.0438043586909771, -0.04352840781211853, -0.014079848304390907], [-0.025523044168949127, 0.13227054476737976, 0.0047478098422288895, 0.026219593361020088, -0.03794801980257034, -0.08398303389549255, 0.0042872740887105465, 0.0438043586909771, -0.04352840781211853, -0.014079848304390907], [-0.025523044168949127, 0.13227054476737976, 0.0047478098422288895, 0.026219593361020088, -0.03794801980257034, -0.08398303389549255, 0.0042872740887105465, 0.0438043586909771, -0.04352840781211853, -0.014079848304390907], [-0.025523044168949127, 0.13227054476737976, 0.0047478098422288895, 0.026219593361020088, -0.03794801980257034, -0.08398303389549255, 0.0042872740887105465, 0.0438043586909771, -0.04352840781211853, -0.014079848304390907], [-0.025523044168949127, 0.13227054476737976, 0.0047478098422288895, 0.026219593361020088, -0.03794801980257034, -0.08398303389549255, 0.0042872740887105465, 0.0438043586909771, -0.04352840781211853, -0.014079848304390907], [-0.025523044168949127, 0.13227054476737976, 0.0047478098422288895, 0.026219593361020088, -0.03794801980257034, -0.08398303389549255, 0.0042872740887105465, 0.0438043586909771, -0.04352840781211853, -0.014079848304390907], [-0.025523044168949127, 0.13227054476737976, 0.0047478098422288895, 0.026219593361020088, -0.03794801980257034, -0.08398303389549255, 0.0042872740887105465, 0.0438043586909771, -0.04352840781211853, -0.014079848304390907], [-0.025523044168949127, 0.13227054476737976, 0.0047478098422288895, 0.026219593361020088, -0.03794801980257034, -0.08398303389549255, 0.0042872740887105465, 0.0438043586909771, -0.04352840781211853, -0.014079848304390907], [-0.025523044168949127, 0.13227054476737976, 0.0047478098422288895, 0.026219593361020088, -0.03794801980257034, -0.08398303389549255, 0.0042872740887105465, 0.0438043586909771, -0.04352840781211853, -0.014079848304390907], [-0.025523044168949127, 0.13227054476737976, 0.0047478098422288895, 0.026219593361020088, -0.03794801980257034, -0.08398303389549255, 0.0042872740887105465, 0.0438043586909771, -0.04352840781211853, -0.014079848304390907], [-0.025523044168949127, 0.13227054476737976, 0.0047478098422288895, 0.026219593361020088, -0.03794801980257034, -0.08398303389549255, 0.0042872740887105465, 0.0438043586909771, -0.04352840781211853, -0.014079848304390907], [-0.025523044168949127, 0.13227054476737976, 0.0047478098422288895, 0.026219593361020088, -0.03794801980257034, -0.08398303389549255, 0.0042872740887105465, 0.0438043586909771, -0.04352840781211853, -0.014079848304390907], [-0.025523044168949127, 0.13227054476737976, 0.0047478098422288895, 0.026219593361020088, -0.03794801980257034, -0.08398303389549255, 0.0042872740887105465, 0.0438043586909771, -0.04352840781211853, -0.014079848304390907], [-0.025523044168949127, 0.13227054476737976, 0.0047478098422288895, 0.026219593361020088, -0.03794801980257034, -0.08398303389549255, 0.0042872740887105465, 0.0438043586909771, -0.04352840781211853, -0.014079848304390907], [-0.025523044168949127, 0.13227054476737976, 0.0047478098422288895, 0.026219593361020088, -0.03794801980257034, -0.08398303389549255, 0.0042872740887105465, 0.0438043586909771, -0.04352840781211853, -0.014079848304390907], [-0.025523044168949127, 0.13227054476737976, 0.0047478098422288895, 0.026219593361020088, -0.03794801980257034, -0.08398303389549255, 0.0042872740887105465, 0.0438043586909771, -0.04352840781211853, -0.014079848304390907], [-0.025523044168949127, 0.13227054476737976, 0.0047478098422288895, 0.026219593361020088, -0.03794801980257034, -0.08398303389549255, 0.0042872740887105465, 0.0438043586909771, -0.04352840781211853, -0.014079848304390907], [-0.025523044168949127, 0.13227054476737976, 0.0047478098422288895, 0.026219593361020088, -0.03794801980257034, -0.08398303389549255, 0.0042872740887105465, 0.0438043586909771, -0.04352840781211853, -0.014079848304390907], [-0.025523044168949127, 0.13227054476737976, 0.0047478098422288895, 0.026219593361020088, -0.03794801980257034, -0.08398303389549255, 0.0042872740887105465, 0.0438043586909771, -0.04352840781211853, -0.014079848304390907], [-0.025523044168949127, 0.13227054476737976, 0.0047478098422288895, 0.026219593361020088, -0.03794801980257034, -0.08398303389549255, 0.0042872740887105465, 0.0438043586909771, -0.04352840781211853, -0.014079848304390907], [-0.025523044168949127, 0.13227054476737976, 0.0047478098422288895, 0.026219593361020088, -0.03794801980257034, -0.08398303389549255, 0.0042872740887105465, 0.0438043586909771, -0.04352840781211853, -0.014079848304390907], [-0.025523044168949127, 0.13227054476737976, 0.0047478098422288895, 0.026219593361020088, -0.03794801980257034, -0.08398303389549255, 0.0042872740887105465, 0.0438043586909771, -0.04352840781211853, -0.014079848304390907], [-0.025523044168949127, 0.13227054476737976, 0.0047478098422288895, 0.026219593361020088, -0.03794801980257034, -0.08398303389549255, 0.0042872740887105465, 0.0438043586909771, -0.04352840781211853, -0.014079848304390907], [-0.025523044168949127, 0.13227054476737976, 0.0047478098422288895, 0.026219593361020088, -0.03794801980257034, -0.08398303389549255, 0.0042872740887105465, 0.0438043586909771, -0.04352840781211853, -0.014079848304390907], [-0.025523044168949127, 0.13227054476737976, 0.0047478098422288895, 0.026219593361020088, -0.03794801980257034, -0.08398303389549255, 0.0042872740887105465, 0.0438043586909771, -0.04352840781211853, -0.014079848304390907], [-0.025523044168949127, 0.13227054476737976, 0.0047478098422288895, 0.026219593361020088, -0.03794801980257034, -0.08398303389549255, 0.0042872740887105465, 0.0438043586909771, -0.04352840781211853, -0.014079848304390907], [-0.025523044168949127, 0.13227054476737976, 0.0047478098422288895, 0.026219593361020088, -0.03794801980257034, -0.08398303389549255, 0.0042872740887105465, 0.0438043586909771, -0.04352840781211853, -0.014079848304390907], [-0.025523044168949127, 0.13227054476737976, 0.0047478098422288895, 0.026219593361020088, -0.03794801980257034, -0.08398303389549255, 0.0042872740887105465, 0.0438043586909771, -0.04352840781211853, -0.014079848304390907], [-0.025523044168949127, 0.13227054476737976, 0.0047478098422288895, 0.026219593361020088, -0.03794801980257034, -0.08398303389549255, 0.0042872740887105465, 0.0438043586909771, -0.04352840781211853, -0.014079848304390907], [-0.025523044168949127, 0.13227054476737976, 0.0047478098422288895, 0.026219593361020088, -0.03794801980257034, -0.08398303389549255, 0.0042872740887105465, 0.0438043586909771, -0.04352840781211853, -0.014079848304390907], [-0.025523044168949127, 0.13227054476737976, 0.0047478098422288895, 0.026219593361020088, -0.03794801980257034, -0.08398303389549255, 0.0042872740887105465, 0.0438043586909771, -0.04352840781211853, -0.014079848304390907], [-0.025523044168949127, 0.13227054476737976, 0.0047478098422288895, 0.026219593361020088, -0.03794801980257034, -0.08398303389549255, 0.0042872740887105465, 0.0438043586909771, -0.04352840781211853, -0.014079848304390907], [-0.025523044168949127, 0.13227054476737976, 0.0047478098422288895, 0.026219593361020088, -0.03794801980257034, -0.08398303389549255, 0.0042872740887105465, 0.0438043586909771, -0.04352840781211853, -0.014079848304390907], [-0.025523044168949127, 0.13227054476737976, 0.0047478098422288895, 0.026219593361020088, -0.03794801980257034, -0.08398303389549255, 0.0042872740887105465, 0.0438043586909771, -0.04352840781211853, -0.014079848304390907], [-0.025523044168949127, 0.13227054476737976, 0.0047478098422288895, 0.026219593361020088, -0.03794801980257034, -0.08398303389549255, 0.0042872740887105465, 0.0438043586909771, -0.04352840781211853, -0.014079848304390907], [-0.025523044168949127, 0.13227054476737976, 0.0047478098422288895, 0.026219593361020088, -0.03794801980257034, -0.08398303389549255, 0.0042872740887105465, 0.0438043586909771, -0.04352840781211853, -0.014079848304390907], [-0.025523044168949127, 0.13227054476737976, 0.0047478098422288895, 0.026219593361020088, -0.03794801980257034, -0.08398303389549255, 0.0042872740887105465, 0.0438043586909771, -0.04352840781211853, -0.014079848304390907], [-0.025523044168949127, 0.13227054476737976, 0.0047478098422288895, 0.026219593361020088, -0.03794801980257034, -0.08398303389549255, 0.0042872740887105465, 0.0438043586909771, -0.04352840781211853, -0.014079848304390907], [-0.025523044168949127, 0.13227054476737976, 0.0047478098422288895, 0.026219593361020088, -0.03794801980257034, -0.08398303389549255, 0.0042872740887105465, 0.0438043586909771, -0.04352840781211853, -0.014079848304390907], [-0.025523044168949127, 0.13227054476737976, 0.0047478098422288895, 0.026219593361020088, -0.03794801980257034, -0.08398303389549255, 0.0042872740887105465, 0.0438043586909771, -0.04352840781211853, -0.014079848304390907], [-0.025523044168949127, 0.13227054476737976, 0.0047478098422288895, 0.026219593361020088, -0.03794801980257034, -0.08398303389549255, 0.0042872740887105465, 0.0438043586909771, -0.04352840781211853, -0.014079848304390907], [-0.025523044168949127, 0.13227054476737976, 0.0047478098422288895, 0.026219593361020088, -0.03794801980257034, -0.08398303389549255, 0.0042872740887105465, 0.0438043586909771, -0.04352840781211853, -0.014079848304390907], [-0.025523044168949127, 0.13227054476737976, 0.0047478098422288895, 0.026219593361020088, -0.03794801980257034, -0.08398303389549255, 0.0042872740887105465, 0.0438043586909771, -0.04352840781211853, -0.014079848304390907], [-0.025523044168949127, 0.13227054476737976, 0.0047478098422288895, 0.026219593361020088, -0.03794801980257034, -0.08398303389549255, 0.0042872740887105465, 0.0438043586909771, -0.04352840781211853, -0.014079848304390907], [-0.025523044168949127, 0.13227054476737976, 0.0047478098422288895, 0.026219593361020088, -0.03794801980257034, -0.08398303389549255, 0.0042872740887105465, 0.0438043586909771, -0.04352840781211853, -0.014079848304390907], [-0.025523044168949127, 0.13227054476737976, 0.0047478098422288895, 0.026219593361020088, -0.03794801980257034, -0.08398303389549255, 0.0042872740887105465, 0.0438043586909771, -0.04352840781211853, -0.014079848304390907], [-0.025523044168949127, 0.13227054476737976, 0.0047478098422288895, 0.026219593361020088, -0.03794801980257034, -0.08398303389549255, 0.0042872740887105465, 0.0438043586909771, -0.04352840781211853, -0.014079848304390907], [-0.025523044168949127, 0.13227054476737976, 0.0047478098422288895, 0.026219593361020088, -0.03794801980257034, -0.08398303389549255, 0.0042872740887105465, 0.0438043586909771, -0.04352840781211853, -0.014079848304390907], [-0.025523044168949127, 0.13227054476737976, 0.0047478098422288895, 0.026219593361020088, -0.03794801980257034, -0.08398303389549255, 0.0042872740887105465, 0.0438043586909771, -0.04352840781211853, -0.014079848304390907], [-0.025523044168949127, 0.13227054476737976, 0.0047478098422288895, 0.026219593361020088, -0.03794801980257034, -0.08398303389549255, 0.0042872740887105465, 0.0438043586909771, -0.04352840781211853, -0.014079848304390907], [-0.025523044168949127, 0.13227054476737976, 0.0047478098422288895, 0.026219593361020088, -0.03794801980257034, -0.08398303389549255, 0.0042872740887105465, 0.0438043586909771, -0.04352840781211853, -0.014079848304390907], [-0.025523044168949127, 0.13227054476737976, 0.0047478098422288895, 0.026219593361020088, -0.03794801980257034, -0.08398303389549255, 0.0042872740887105465, 0.0438043586909771, -0.04352840781211853, -0.014079848304390907], [-0.025523044168949127, 0.13227054476737976, 0.0047478098422288895, 0.026219593361020088, -0.03794801980257034, -0.08398303389549255, 0.0042872740887105465, 0.0438043586909771, -0.04352840781211853, -0.014079848304390907], [-0.025523044168949127, 0.13227054476737976, 0.0047478098422288895, 0.026219593361020088, -0.03794801980257034, -0.08398303389549255, 0.0042872740887105465, 0.0438043586909771, -0.04352840781211853, -0.014079848304390907], [-0.025523044168949127, 0.13227054476737976, 0.0047478098422288895, 0.026219593361020088, -0.03794801980257034, -0.08398303389549255, 0.0042872740887105465, 0.0438043586909771, -0.04352840781211853, -0.014079848304390907], [-0.025523044168949127, 0.13227054476737976, 0.0047478098422288895, 0.026219593361020088, -0.03794801980257034, -0.08398303389549255, 0.0042872740887105465, 0.0438043586909771, -0.04352840781211853, -0.014079848304390907], [-0.025523044168949127, 0.13227054476737976, 0.0047478098422288895, 0.026219593361020088, -0.03794801980257034, -0.08398303389549255, 0.0042872740887105465, 0.0438043586909771, -0.04352840781211853, -0.014079848304390907], [-0.025523044168949127, 0.13227054476737976, 0.0047478098422288895, 0.026219593361020088, -0.03794801980257034, -0.08398303389549255, 0.0042872740887105465, 0.0438043586909771, -0.04352840781211853, -0.014079848304390907], [-0.025523044168949127, 0.13227054476737976, 0.0047478098422288895, 0.026219593361020088, -0.03794801980257034, -0.08398303389549255, 0.0042872740887105465, 0.0438043586909771, -0.04352840781211853, -0.014079848304390907], [-0.025523044168949127, 0.13227054476737976, 0.0047478098422288895, 0.026219593361020088, -0.03794801980257034, -0.08398303389549255, 0.0042872740887105465, 0.0438043586909771, -0.04352840781211853, -0.014079848304390907], [-0.025523044168949127, 0.13227054476737976, 0.0047478098422288895, 0.026219593361020088, -0.03794801980257034, -0.08398303389549255, 0.0042872740887105465, 0.0438043586909771, -0.04352840781211853, -0.014079848304390907], [-0.025523044168949127, 0.13227054476737976, 0.0047478098422288895, 0.026219593361020088, -0.03794801980257034, -0.08398303389549255, 0.0042872740887105465, 0.0438043586909771, -0.04352840781211853, -0.014079848304390907], [-0.025523044168949127, 0.13227054476737976, 0.0047478098422288895, 0.026219593361020088, -0.03794801980257034, -0.08398303389549255, 0.0042872740887105465, 0.0438043586909771, -0.04352840781211853, -0.014079848304390907], [-0.025523044168949127, 0.13227054476737976, 0.0047478098422288895, 0.026219593361020088, -0.03794801980257034, -0.08398303389549255, 0.0042872740887105465, 0.0438043586909771, -0.04352840781211853, -0.014079848304390907], [-0.025523044168949127, 0.13227054476737976, 0.0047478098422288895, 0.026219593361020088, -0.03794801980257034, -0.08398303389549255, 0.0042872740887105465, 0.0438043586909771, -0.04352840781211853, -0.014079848304390907], [-0.025523044168949127, 0.13227054476737976, 0.0047478098422288895, 0.026219593361020088, -0.03794801980257034, -0.08398303389549255, 0.0042872740887105465, 0.0438043586909771, -0.04352840781211853, -0.014079848304390907], [-0.025523044168949127, 0.13227054476737976, 0.0047478098422288895, 0.026219593361020088, -0.03794801980257034, -0.08398303389549255, 0.0042872740887105465, 0.0438043586909771, -0.04352840781211853, -0.014079848304390907], [-0.025523044168949127, 0.13227054476737976, 0.0047478098422288895, 0.026219593361020088, -0.03794801980257034, -0.08398303389549255, 0.0042872740887105465, 0.0438043586909771, -0.04352840781211853, -0.014079848304390907], [-0.025523044168949127, 0.13227054476737976, 0.0047478098422288895, 0.026219593361020088, -0.03794801980257034, -0.08398303389549255, 0.0042872740887105465, 0.0438043586909771, -0.04352840781211853, -0.014079848304390907], [-0.025523044168949127, 0.13227054476737976, 0.0047478098422288895, 0.026219593361020088, -0.03794801980257034, -0.08398303389549255, 0.0042872740887105465, 0.0438043586909771, -0.04352840781211853, -0.014079848304390907], [-0.025523044168949127, 0.13227054476737976, 0.0047478098422288895, 0.026219593361020088, -0.03794801980257034, -0.08398303389549255, 0.0042872740887105465, 0.0438043586909771, -0.04352840781211853, -0.014079848304390907], [-0.025523044168949127, 0.13227054476737976, 0.0047478098422288895, 0.026219593361020088, -0.03794801980257034, -0.08398303389549255, 0.0042872740887105465, 0.0438043586909771, -0.04352840781211853, -0.014079848304390907], [-0.025523044168949127, 0.13227054476737976, 0.0047478098422288895, 0.026219593361020088, -0.03794801980257034, -0.08398303389549255, 0.0042872740887105465, 0.0438043586909771, -0.04352840781211853, -0.014079848304390907], [-0.025523044168949127, 0.13227054476737976, 0.0047478098422288895, 0.026219593361020088, -0.03794801980257034, -0.08398303389549255, 0.0042872740887105465, 0.0438043586909771, -0.04352840781211853, -0.014079848304390907], [-0.025523044168949127, 0.13227054476737976, 0.0047478098422288895, 0.026219593361020088, -0.03794801980257034, -0.08398303389549255, 0.0042872740887105465, 0.0438043586909771, -0.04352840781211853, -0.014079848304390907], [-0.025523044168949127, 0.13227054476737976, 0.0047478098422288895, 0.026219593361020088, -0.03794801980257034, -0.08398303389549255, 0.0042872740887105465, 0.0438043586909771, -0.04352840781211853, -0.014079848304390907], [-0.025523044168949127, 0.13227054476737976, 0.0047478098422288895, 0.026219593361020088, -0.03794801980257034, -0.08398303389549255, 0.0042872740887105465, 0.0438043586909771, -0.04352840781211853, -0.014079848304390907], [-0.025523044168949127, 0.13227054476737976, 0.0047478098422288895, 0.026219593361020088, -0.03794801980257034, -0.08398303389549255, 0.0042872740887105465, 0.0438043586909771, -0.04352840781211853, -0.014079848304390907], [-0.025523044168949127, 0.13227054476737976, 0.0047478098422288895, 0.026219593361020088, -0.03794801980257034, -0.08398303389549255, 0.0042872740887105465, 0.0438043586909771, -0.04352840781211853, -0.014079848304390907], [-0.025523044168949127, 0.13227054476737976, 0.0047478098422288895, 0.026219593361020088, -0.03794801980257034, -0.08398303389549255, 0.0042872740887105465, 0.0438043586909771, -0.04352840781211853, -0.014079848304390907], [-0.025523044168949127, 0.13227054476737976, 0.0047478098422288895, 0.026219593361020088, -0.03794801980257034, -0.08398303389549255, 0.0042872740887105465, 0.0438043586909771, -0.04352840781211853, -0.014079848304390907], [-0.025523044168949127, 0.13227054476737976, 0.0047478098422288895, 0.026219593361020088, -0.03794801980257034, -0.08398303389549255, 0.0042872740887105465, 0.0438043586909771, -0.04352840781211853, -0.014079848304390907], [-0.025523044168949127, 0.13227054476737976, 0.0047478098422288895, 0.026219593361020088, -0.03794801980257034, -0.08398303389549255, 0.0042872740887105465, 0.0438043586909771, -0.04352840781211853, -0.014079848304390907], [-0.025523044168949127, 0.13227054476737976, 0.0047478098422288895, 0.026219593361020088, -0.03794801980257034, -0.08398303389549255, 0.0042872740887105465, 0.0438043586909771, -0.04352840781211853, -0.014079848304390907], [-0.025523044168949127, 0.13227054476737976, 0.0047478098422288895, 0.026219593361020088, -0.03794801980257034, -0.08398303389549255, 0.0042872740887105465, 0.0438043586909771, -0.04352840781211853, -0.014079848304390907], [-0.025523044168949127, 0.13227054476737976, 0.0047478098422288895, 0.026219593361020088, -0.03794801980257034, -0.08398303389549255, 0.0042872740887105465, 0.0438043586909771, -0.04352840781211853, -0.014079848304390907], [-0.025523044168949127, 0.13227054476737976, 0.0047478098422288895, 0.026219593361020088, -0.03794801980257034, -0.08398303389549255, 0.0042872740887105465, 0.0438043586909771, -0.04352840781211853, -0.014079848304390907], [-0.025523044168949127, 0.13227054476737976, 0.0047478098422288895, 0.026219593361020088, -0.03794801980257034, -0.08398303389549255, 0.0042872740887105465, 0.0438043586909771, -0.04352840781211853, -0.014079848304390907], [-0.025523044168949127, 0.13227054476737976, 0.0047478098422288895, 0.026219593361020088, -0.03794801980257034, -0.08398303389549255, 0.0042872740887105465, 0.0438043586909771, -0.04352840781211853, -0.014079848304390907], [-0.025523044168949127, 0.13227054476737976, 0.0047478098422288895, 0.026219593361020088, -0.03794801980257034, -0.08398303389549255, 0.0042872740887105465, 0.0438043586909771, -0.04352840781211853, -0.014079848304390907], [-0.025523044168949127, 0.13227054476737976, 0.0047478098422288895, 0.026219593361020088, -0.03794801980257034, -0.08398303389549255, 0.0042872740887105465, 0.0438043586909771, -0.04352840781211853, -0.014079848304390907], [-0.025523044168949127, 0.13227054476737976, 0.0047478098422288895, 0.026219593361020088, -0.03794801980257034, -0.08398303389549255, 0.0042872740887105465, 0.0438043586909771, -0.04352840781211853, -0.014079848304390907], [-0.025523044168949127, 0.13227054476737976, 0.0047478098422288895, 0.026219593361020088, -0.03794801980257034, -0.08398303389549255, 0.0042872740887105465, 0.0438043586909771, -0.04352840781211853, -0.014079848304390907], [-0.025523044168949127, 0.13227054476737976, 0.0047478098422288895, 0.026219593361020088, -0.03794801980257034, -0.08398303389549255, 0.0042872740887105465, 0.0438043586909771, -0.04352840781211853, -0.014079848304390907], [-0.025523044168949127, 0.13227054476737976, 0.0047478098422288895, 0.026219593361020088, -0.03794801980257034, -0.08398303389549255, 0.0042872740887105465, 0.0438043586909771, -0.04352840781211853, -0.014079848304390907], [-0.025523044168949127, 0.13227054476737976, 0.0047478098422288895, 0.026219593361020088, -0.03794801980257034, -0.08398303389549255, 0.0042872740887105465, 0.0438043586909771, -0.04352840781211853, -0.014079848304390907], [-0.025523044168949127, 0.13227054476737976, 0.0047478098422288895, 0.026219593361020088, -0.03794801980257034, -0.08398303389549255, 0.0042872740887105465, 0.0438043586909771, -0.04352840781211853, -0.014079848304390907], [-0.025523044168949127, 0.13227054476737976, 0.0047478098422288895, 0.026219593361020088, -0.03794801980257034, -0.08398303389549255, 0.0042872740887105465, 0.0438043586909771, -0.04352840781211853, -0.014079848304390907], [-0.025523044168949127, 0.13227054476737976, 0.0047478098422288895, 0.026219593361020088, -0.03794801980257034, -0.08398303389549255, 0.0042872740887105465, 0.0438043586909771, -0.04352840781211853, -0.014079848304390907], [-0.025523044168949127, 0.13227054476737976, 0.0047478098422288895, 0.026219593361020088, -0.03794801980257034, -0.08398303389549255, 0.0042872740887105465, 0.0438043586909771, -0.04352840781211853, -0.014079848304390907], [-0.025523044168949127, 0.13227054476737976, 0.0047478098422288895, 0.026219593361020088, -0.03794801980257034, -0.08398303389549255, 0.0042872740887105465, 0.0438043586909771, -0.04352840781211853, -0.014079848304390907], [-0.025523044168949127, 0.13227054476737976, 0.0047478098422288895, 0.026219593361020088, -0.03794801980257034, -0.08398303389549255, 0.0042872740887105465, 0.0438043586909771, -0.04352840781211853, -0.014079848304390907], [-0.025523044168949127, 0.13227054476737976, 0.0047478098422288895, 0.026219593361020088, -0.03794801980257034, -0.08398303389549255, 0.0042872740887105465, 0.0438043586909771, -0.04352840781211853, -0.014079848304390907], [-0.025523044168949127, 0.13227054476737976, 0.0047478098422288895, 0.026219593361020088, -0.03794801980257034, -0.08398303389549255, 0.0042872740887105465, 0.0438043586909771, -0.04352840781211853, -0.014079848304390907], [-0.025523044168949127, 0.13227054476737976, 0.0047478098422288895, 0.026219593361020088, -0.03794801980257034, -0.08398303389549255, 0.0042872740887105465, 0.0438043586909771, -0.04352840781211853, -0.014079848304390907], [-0.025523044168949127, 0.13227054476737976, 0.0047478098422288895, 0.026219593361020088, -0.03794801980257034, -0.08398303389549255, 0.0042872740887105465, 0.0438043586909771, -0.04352840781211853, -0.014079848304390907], [-0.025523044168949127, 0.13227054476737976, 0.0047478098422288895, 0.026219593361020088, -0.03794801980257034, -0.08398303389549255, 0.0042872740887105465, 0.0438043586909771, -0.04352840781211853, -0.014079848304390907], [-0.025523044168949127, 0.13227054476737976, 0.0047478098422288895, 0.026219593361020088, -0.03794801980257034, -0.08398303389549255, 0.0042872740887105465, 0.0438043586909771, -0.04352840781211853, -0.014079848304390907], [-0.025523044168949127, 0.13227054476737976, 0.0047478098422288895, 0.026219593361020088, -0.03794801980257034, -0.08398303389549255, 0.0042872740887105465, 0.0438043586909771, -0.04352840781211853, -0.014079848304390907], [-0.025523044168949127, 0.13227054476737976, 0.0047478098422288895, 0.026219593361020088, -0.03794801980257034, -0.08398303389549255, 0.0042872740887105465, 0.0438043586909771, -0.04352840781211853, -0.014079848304390907], [-0.025523044168949127, 0.13227054476737976, 0.0047478098422288895, 0.026219593361020088, -0.03794801980257034, -0.08398303389549255, 0.0042872740887105465, 0.0438043586909771, -0.04352840781211853, -0.014079848304390907], [-0.025523044168949127, 0.13227054476737976, 0.0047478098422288895, 0.026219593361020088, -0.03794801980257034, -0.08398303389549255, 0.0042872740887105465, 0.0438043586909771, -0.04352840781211853, -0.014079848304390907], [-0.025523044168949127, 0.13227054476737976, 0.0047478098422288895, 0.026219593361020088, -0.03794801980257034, -0.08398303389549255, 0.0042872740887105465, 0.0438043586909771, -0.04352840781211853, -0.014079848304390907], [-0.025523044168949127, 0.13227054476737976, 0.0047478098422288895, 0.026219593361020088, -0.03794801980257034, -0.08398303389549255, 0.0042872740887105465, 0.0438043586909771, -0.04352840781211853, -0.014079848304390907], [-0.025523044168949127, 0.13227054476737976, 0.0047478098422288895, 0.026219593361020088, -0.03794801980257034, -0.08398303389549255, 0.0042872740887105465, 0.0438043586909771, -0.04352840781211853, -0.014079848304390907], [-0.025523044168949127, 0.13227054476737976, 0.0047478098422288895, 0.026219593361020088, -0.03794801980257034, -0.08398303389549255, 0.0042872740887105465, 0.0438043586909771, -0.04352840781211853, -0.014079848304390907], [-0.025523044168949127, 0.13227054476737976, 0.0047478098422288895, 0.026219593361020088, -0.03794801980257034, -0.08398303389549255, 0.0042872740887105465, 0.0438043586909771, -0.04352840781211853, -0.014079848304390907], [-0.025523044168949127, 0.13227054476737976, 0.0047478098422288895, 0.026219593361020088, -0.03794801980257034, -0.08398303389549255, 0.0042872740887105465, 0.0438043586909771, -0.04352840781211853, -0.014079848304390907], [-0.025523044168949127, 0.13227054476737976, 0.0047478098422288895, 0.026219593361020088, -0.03794801980257034, -0.08398303389549255, 0.0042872740887105465, 0.0438043586909771, -0.04352840781211853, -0.014079848304390907], [-0.025523044168949127, 0.13227054476737976, 0.0047478098422288895, 0.026219593361020088, -0.03794801980257034, -0.08398303389549255, 0.0042872740887105465, 0.0438043586909771, -0.04352840781211853, -0.014079848304390907], [-0.025523044168949127, 0.13227054476737976, 0.0047478098422288895, 0.026219593361020088, -0.03794801980257034, -0.08398303389549255, 0.0042872740887105465, 0.0438043586909771, -0.04352840781211853, -0.014079848304390907], [-0.025523044168949127, 0.13227054476737976, 0.0047478098422288895, 0.026219593361020088, -0.03794801980257034, -0.08398303389549255, 0.0042872740887105465, 0.0438043586909771, -0.04352840781211853, -0.014079848304390907], [-0.025523044168949127, 0.13227054476737976, 0.0047478098422288895, 0.026219593361020088, -0.03794801980257034, -0.08398303389549255, 0.0042872740887105465, 0.0438043586909771, -0.04352840781211853, -0.014079848304390907], [-0.025523044168949127, 0.13227054476737976, 0.0047478098422288895, 0.026219593361020088, -0.03794801980257034, -0.08398303389549255, 0.0042872740887105465, 0.0438043586909771, -0.04352840781211853, -0.014079848304390907], [-0.025523044168949127, 0.13227054476737976, 0.0047478098422288895, 0.026219593361020088, -0.03794801980257034, -0.08398303389549255, 0.0042872740887105465, 0.0438043586909771, -0.04352840781211853, -0.014079848304390907], [-0.025523044168949127, 0.13227054476737976, 0.0047478098422288895, 0.026219593361020088, -0.03794801980257034, -0.08398303389549255, 0.0042872740887105465, 0.0438043586909771, -0.04352840781211853, -0.014079848304390907], [-0.025523044168949127, 0.13227054476737976, 0.0047478098422288895, 0.026219593361020088, -0.03794801980257034, -0.08398303389549255, 0.0042872740887105465, 0.0438043586909771, -0.04352840781211853, -0.014079848304390907], [-0.025523044168949127, 0.13227054476737976, 0.0047478098422288895, 0.026219593361020088, -0.03794801980257034, -0.08398303389549255, 0.0042872740887105465, 0.0438043586909771, -0.04352840781211853, -0.014079848304390907], [-0.025523044168949127, 0.13227054476737976, 0.0047478098422288895, 0.026219593361020088, -0.03794801980257034, -0.08398303389549255, 0.0042872740887105465, 0.0438043586909771, -0.04352840781211853, -0.014079848304390907], [-0.025523044168949127, 0.13227054476737976, 0.0047478098422288895, 0.026219593361020088, -0.03794801980257034, -0.08398303389549255, 0.0042872740887105465, 0.0438043586909771, -0.04352840781211853, -0.014079848304390907], [-0.025523044168949127, 0.13227054476737976, 0.0047478098422288895, 0.026219593361020088, -0.03794801980257034, -0.08398303389549255, 0.0042872740887105465, 0.0438043586909771, -0.04352840781211853, -0.014079848304390907], [-0.025523044168949127, 0.13227054476737976, 0.0047478098422288895, 0.026219593361020088, -0.03794801980257034, -0.08398303389549255, 0.0042872740887105465, 0.0438043586909771, -0.04352840781211853, -0.014079848304390907], [-0.025523044168949127, 0.13227054476737976, 0.0047478098422288895, 0.026219593361020088, -0.03794801980257034, -0.08398303389549255, 0.0042872740887105465, 0.0438043586909771, -0.04352840781211853, -0.014079848304390907], [-0.025523044168949127, 0.13227054476737976, 0.0047478098422288895, 0.026219593361020088, -0.03794801980257034, -0.08398303389549255, 0.0042872740887105465, 0.0438043586909771, -0.04352840781211853, -0.014079848304390907], [-0.025523044168949127, 0.13227054476737976, 0.0047478098422288895, 0.026219593361020088, -0.03794801980257034, -0.08398303389549255, 0.0042872740887105465, 0.0438043586909771, -0.04352840781211853, -0.014079848304390907], [-0.025523044168949127, 0.13227054476737976, 0.0047478098422288895, 0.026219593361020088, -0.03794801980257034, -0.08398303389549255, 0.0042872740887105465, 0.0438043586909771, -0.04352840781211853, -0.014079848304390907], [-0.025523044168949127, 0.13227054476737976, 0.0047478098422288895, 0.026219593361020088, -0.03794801980257034, -0.08398303389549255, 0.0042872740887105465, 0.0438043586909771, -0.04352840781211853, -0.014079848304390907], [-0.025523044168949127, 0.13227054476737976, 0.0047478098422288895, 0.026219593361020088, -0.03794801980257034, -0.08398303389549255, 0.0042872740887105465, 0.0438043586909771, -0.04352840781211853, -0.014079848304390907], [-0.025523044168949127, 0.13227054476737976, 0.0047478098422288895, 0.026219593361020088, -0.03794801980257034, -0.08398303389549255, 0.0042872740887105465, 0.0438043586909771, -0.04352840781211853, -0.014079848304390907], [-0.025523044168949127, 0.13227054476737976, 0.0047478098422288895, 0.026219593361020088, -0.03794801980257034, -0.08398303389549255, 0.0042872740887105465, 0.0438043586909771, -0.04352840781211853, -0.014079848304390907], [-0.025523044168949127, 0.13227054476737976, 0.0047478098422288895, 0.026219593361020088, -0.03794801980257034, -0.08398303389549255, 0.0042872740887105465, 0.0438043586909771, -0.04352840781211853, -0.014079848304390907], [-0.025523044168949127, 0.13227054476737976, 0.0047478098422288895, 0.026219593361020088, -0.03794801980257034, -0.08398303389549255, 0.0042872740887105465, 0.0438043586909771, -0.04352840781211853, -0.014079848304390907], [-0.025523044168949127, 0.13227054476737976, 0.0047478098422288895, 0.026219593361020088, -0.03794801980257034, -0.08398303389549255, 0.0042872740887105465, 0.0438043586909771, -0.04352840781211853, -0.014079848304390907], [-0.025523044168949127, 0.13227054476737976, 0.0047478098422288895, 0.026219593361020088, -0.03794801980257034, -0.08398303389549255, 0.0042872740887105465, 0.0438043586909771, -0.04352840781211853, -0.014079848304390907], [-0.025523044168949127, 0.13227054476737976, 0.0047478098422288895, 0.026219593361020088, -0.03794801980257034, -0.08398303389549255, 0.0042872740887105465, 0.0438043586909771, -0.04352840781211853, -0.014079848304390907], [-0.025523044168949127, 0.13227054476737976, 0.0047478098422288895, 0.026219593361020088, -0.03794801980257034, -0.08398303389549255, 0.0042872740887105465, 0.0438043586909771, -0.04352840781211853, -0.014079848304390907], [-0.025523044168949127, 0.13227054476737976, 0.0047478098422288895, 0.026219593361020088, -0.03794801980257034, -0.08398303389549255, 0.0042872740887105465, 0.0438043586909771, -0.04352840781211853, -0.014079848304390907], [-0.025523044168949127, 0.13227054476737976, 0.0047478098422288895, 0.026219593361020088, -0.03794801980257034, -0.08398303389549255, 0.0042872740887105465, 0.0438043586909771, -0.04352840781211853, -0.014079848304390907], [-0.025523044168949127, 0.13227054476737976, 0.0047478098422288895, 0.026219593361020088, -0.03794801980257034, -0.08398303389549255, 0.0042872740887105465, 0.0438043586909771, -0.04352840781211853, -0.014079848304390907], [-0.025523044168949127, 0.13227054476737976, 0.0047478098422288895, 0.026219593361020088, -0.03794801980257034, -0.08398303389549255, 0.0042872740887105465, 0.0438043586909771, -0.04352840781211853, -0.014079848304390907], [-0.025523044168949127, 0.13227054476737976, 0.0047478098422288895, 0.026219593361020088, -0.03794801980257034, -0.08398303389549255, 0.0042872740887105465, 0.0438043586909771, -0.04352840781211853, -0.014079848304390907], [-0.025523044168949127, 0.13227054476737976, 0.0047478098422288895, 0.026219593361020088, -0.03794801980257034, -0.08398303389549255, 0.0042872740887105465, 0.0438043586909771, -0.04352840781211853, -0.014079848304390907], [-0.025523044168949127, 0.13227054476737976, 0.0047478098422288895, 0.026219593361020088, -0.03794801980257034, -0.08398303389549255, 0.0042872740887105465, 0.0438043586909771, -0.04352840781211853, -0.014079848304390907], [-0.025523044168949127, 0.13227054476737976, 0.0047478098422288895, 0.026219593361020088, -0.03794801980257034, -0.08398303389549255, 0.0042872740887105465, 0.0438043586909771, -0.04352840781211853, -0.014079848304390907], [-0.025523044168949127, 0.13227054476737976, 0.0047478098422288895, 0.026219593361020088, -0.03794801980257034, -0.08398303389549255, 0.0042872740887105465, 0.0438043586909771, -0.04352840781211853, -0.014079848304390907], [-0.025523044168949127, 0.13227054476737976, 0.0047478098422288895, 0.026219593361020088, -0.03794801980257034, -0.08398303389549255, 0.0042872740887105465, 0.0438043586909771, -0.04352840781211853, -0.014079848304390907], [-0.025523044168949127, 0.13227054476737976, 0.0047478098422288895, 0.026219593361020088, -0.03794801980257034, -0.08398303389549255, 0.0042872740887105465, 0.0438043586909771, -0.04352840781211853, -0.014079848304390907], [-0.025523044168949127, 0.13227054476737976, 0.0047478098422288895, 0.026219593361020088, -0.03794801980257034, -0.08398303389549255, 0.0042872740887105465, 0.0438043586909771, -0.04352840781211853, -0.014079848304390907], [-0.025523044168949127, 0.13227054476737976, 0.0047478098422288895, 0.026219593361020088, -0.03794801980257034, -0.08398303389549255, 0.0042872740887105465, 0.0438043586909771, -0.04352840781211853, -0.014079848304390907], [-0.025523044168949127, 0.13227054476737976, 0.0047478098422288895, 0.026219593361020088, -0.03794801980257034, -0.08398303389549255, 0.0042872740887105465, 0.0438043586909771, -0.04352840781211853, -0.014079848304390907], [-0.025523044168949127, 0.13227054476737976, 0.0047478098422288895, 0.026219593361020088, -0.03794801980257034, -0.08398303389549255, 0.0042872740887105465, 0.0438043586909771, -0.04352840781211853, -0.014079848304390907], [-0.025523044168949127, 0.13227054476737976, 0.0047478098422288895, 0.026219593361020088, -0.03794801980257034, -0.08398303389549255, 0.0042872740887105465, 0.0438043586909771, -0.04352840781211853, -0.014079848304390907], [-0.025523044168949127, 0.13227054476737976, 0.0047478098422288895, 0.026219593361020088, -0.03794801980257034, -0.08398303389549255, 0.0042872740887105465, 0.0438043586909771, -0.04352840781211853, -0.014079848304390907], [-0.025523044168949127, 0.13227054476737976, 0.0047478098422288895, 0.026219593361020088, -0.03794801980257034, -0.08398303389549255, 0.0042872740887105465, 0.0438043586909771, -0.04352840781211853, -0.014079848304390907], [-0.025523044168949127, 0.13227054476737976, 0.0047478098422288895, 0.026219593361020088, -0.03794801980257034, -0.08398303389549255, 0.0042872740887105465, 0.0438043586909771, -0.04352840781211853, -0.014079848304390907], [-0.025523044168949127, 0.13227054476737976, 0.0047478098422288895, 0.026219593361020088, -0.03794801980257034, -0.08398303389549255, 0.0042872740887105465, 0.0438043586909771, -0.04352840781211853, -0.014079848304390907], [-0.025523044168949127, 0.13227054476737976, 0.0047478098422288895, 0.026219593361020088, -0.03794801980257034, -0.08398303389549255, 0.0042872740887105465, 0.0438043586909771, -0.04352840781211853, -0.014079848304390907], [-0.025523044168949127, 0.13227054476737976, 0.0047478098422288895, 0.026219593361020088, -0.03794801980257034, -0.08398303389549255, 0.0042872740887105465, 0.0438043586909771, -0.04352840781211853, -0.014079848304390907], [-0.025523044168949127, 0.13227054476737976, 0.0047478098422288895, 0.026219593361020088, -0.03794801980257034, -0.08398303389549255, 0.0042872740887105465, 0.0438043586909771, -0.04352840781211853, -0.014079848304390907], [-0.025523044168949127, 0.13227054476737976, 0.0047478098422288895, 0.026219593361020088, -0.03794801980257034, -0.08398303389549255, 0.0042872740887105465, 0.0438043586909771, -0.04352840781211853, -0.014079848304390907], [-0.025523044168949127, 0.13227054476737976, 0.0047478098422288895, 0.026219593361020088, -0.03794801980257034, -0.08398303389549255, 0.0042872740887105465, 0.0438043586909771, -0.04352840781211853, -0.014079848304390907], [-0.025523044168949127, 0.13227054476737976, 0.0047478098422288895, 0.026219593361020088, -0.03794801980257034, -0.08398303389549255, 0.0042872740887105465, 0.0438043586909771, -0.04352840781211853, -0.014079848304390907], [-0.025523044168949127, 0.13227054476737976, 0.0047478098422288895, 0.026219593361020088, -0.03794801980257034, -0.08398303389549255, 0.0042872740887105465, 0.0438043586909771, -0.04352840781211853, -0.014079848304390907], [-0.025523044168949127, 0.13227054476737976, 0.0047478098422288895, 0.026219593361020088, -0.03794801980257034, -0.08398303389549255, 0.0042872740887105465, 0.0438043586909771, -0.04352840781211853, -0.014079848304390907], [-0.025523044168949127, 0.13227054476737976, 0.0047478098422288895, 0.026219593361020088, -0.03794801980257034, -0.08398303389549255, 0.0042872740887105465, 0.0438043586909771, -0.04352840781211853, -0.014079848304390907], [-0.025523044168949127, 0.13227054476737976, 0.0047478098422288895, 0.026219593361020088, -0.03794801980257034, -0.08398303389549255, 0.0042872740887105465, 0.0438043586909771, -0.04352840781211853, -0.014079848304390907], [-0.025523044168949127, 0.13227054476737976, 0.0047478098422288895, 0.026219593361020088, -0.03794801980257034, -0.08398303389549255, 0.0042872740887105465, 0.0438043586909771, -0.04352840781211853, -0.014079848304390907], [-0.025523044168949127, 0.13227054476737976, 0.0047478098422288895, 0.026219593361020088, -0.03794801980257034, -0.08398303389549255, 0.0042872740887105465, 0.0438043586909771, -0.04352840781211853, -0.014079848304390907], [-0.025523044168949127, 0.13227054476737976, 0.0047478098422288895, 0.026219593361020088, -0.03794801980257034, -0.08398303389549255, 0.0042872740887105465, 0.0438043586909771, -0.04352840781211853, -0.014079848304390907], [-0.025523044168949127, 0.13227054476737976, 0.0047478098422288895, 0.026219593361020088, -0.03794801980257034, -0.08398303389549255, 0.0042872740887105465, 0.0438043586909771, -0.04352840781211853, -0.014079848304390907], [-0.025523044168949127, 0.13227054476737976, 0.0047478098422288895, 0.026219593361020088, -0.03794801980257034, -0.08398303389549255, 0.0042872740887105465, 0.0438043586909771, -0.04352840781211853, -0.014079848304390907], [-0.025523044168949127, 0.13227054476737976, 0.0047478098422288895, 0.026219593361020088, -0.03794801980257034, -0.08398303389549255, 0.0042872740887105465, 0.0438043586909771, -0.04352840781211853, -0.014079848304390907], [-0.025523044168949127, 0.13227054476737976, 0.0047478098422288895, 0.026219593361020088, -0.03794801980257034, -0.08398303389549255, 0.0042872740887105465, 0.0438043586909771, -0.04352840781211853, -0.014079848304390907], [-0.025523044168949127, 0.13227054476737976, 0.0047478098422288895, 0.026219593361020088, -0.03794801980257034, -0.08398303389549255, 0.0042872740887105465, 0.0438043586909771, -0.04352840781211853, -0.014079848304390907], [-0.025523044168949127, 0.13227054476737976, 0.0047478098422288895, 0.026219593361020088, -0.03794801980257034, -0.08398303389549255, 0.0042872740887105465, 0.0438043586909771, -0.04352840781211853, -0.014079848304390907], [-0.025523044168949127, 0.13227054476737976, 0.0047478098422288895, 0.026219593361020088, -0.03794801980257034, -0.08398303389549255, 0.0042872740887105465, 0.0438043586909771, -0.04352840781211853, -0.014079848304390907], [-0.025523044168949127, 0.13227054476737976, 0.0047478098422288895, 0.026219593361020088, -0.03794801980257034, -0.08398303389549255, 0.0042872740887105465, 0.0438043586909771, -0.04352840781211853, -0.014079848304390907], [-0.025523044168949127, 0.13227054476737976, 0.0047478098422288895, 0.026219593361020088, -0.03794801980257034, -0.08398303389549255, 0.0042872740887105465, 0.0438043586909771, -0.04352840781211853, -0.014079848304390907], [-0.025523044168949127, 0.13227054476737976, 0.0047478098422288895, 0.026219593361020088, -0.03794801980257034, -0.08398303389549255, 0.0042872740887105465, 0.0438043586909771, -0.04352840781211853, -0.014079848304390907], [-0.025523044168949127, 0.13227054476737976, 0.0047478098422288895, 0.026219593361020088, -0.03794801980257034, -0.08398303389549255, 0.0042872740887105465, 0.0438043586909771, -0.04352840781211853, -0.014079848304390907], [-0.025523044168949127, 0.13227054476737976, 0.0047478098422288895, 0.026219593361020088, -0.03794801980257034, -0.08398303389549255, 0.0042872740887105465, 0.0438043586909771, -0.04352840781211853, -0.014079848304390907], [-0.025523044168949127, 0.13227054476737976, 0.0047478098422288895, 0.026219593361020088, -0.03794801980257034, -0.08398303389549255, 0.0042872740887105465, 0.0438043586909771, -0.04352840781211853, -0.014079848304390907], [-0.025523044168949127, 0.13227054476737976, 0.0047478098422288895, 0.026219593361020088, -0.03794801980257034, -0.08398303389549255, 0.0042872740887105465, 0.0438043586909771, -0.04352840781211853, -0.014079848304390907], [-0.025523044168949127, 0.13227054476737976, 0.0047478098422288895, 0.026219593361020088, -0.03794801980257034, -0.08398303389549255, 0.0042872740887105465, 0.0438043586909771, -0.04352840781211853, -0.014079848304390907], [-0.025523044168949127, 0.13227054476737976, 0.0047478098422288895, 0.026219593361020088, -0.03794801980257034, -0.08398303389549255, 0.0042872740887105465, 0.0438043586909771, -0.04352840781211853, -0.014079848304390907], [-0.025523044168949127, 0.13227054476737976, 0.0047478098422288895, 0.026219593361020088, -0.03794801980257034, -0.08398303389549255, 0.0042872740887105465, 0.0438043586909771, -0.04352840781211853, -0.014079848304390907], [-0.025523044168949127, 0.13227054476737976, 0.0047478098422288895, 0.026219593361020088, -0.03794801980257034, -0.08398303389549255, 0.0042872740887105465, 0.0438043586909771, -0.04352840781211853, -0.014079848304390907], [-0.025523044168949127, 0.13227054476737976, 0.0047478098422288895, 0.026219593361020088, -0.03794801980257034, -0.08398303389549255, 0.0042872740887105465, 0.0438043586909771, -0.04352840781211853, -0.014079848304390907], [-0.025523044168949127, 0.13227054476737976, 0.0047478098422288895, 0.026219593361020088, -0.03794801980257034, -0.08398303389549255, 0.0042872740887105465, 0.0438043586909771, -0.04352840781211853, -0.014079848304390907], [-0.025523044168949127, 0.13227054476737976, 0.0047478098422288895, 0.026219593361020088, -0.03794801980257034, -0.08398303389549255, 0.0042872740887105465, 0.0438043586909771, -0.04352840781211853, -0.014079848304390907], [-0.025523044168949127, 0.13227054476737976, 0.0047478098422288895, 0.026219593361020088, -0.03794801980257034, -0.08398303389549255, 0.0042872740887105465, 0.0438043586909771, -0.04352840781211853, -0.014079848304390907], [-0.025523044168949127, 0.13227054476737976, 0.0047478098422288895, 0.026219593361020088, -0.03794801980257034, -0.08398303389549255, 0.0042872740887105465, 0.0438043586909771, -0.04352840781211853, -0.014079848304390907], [-0.025523044168949127, 0.13227054476737976, 0.0047478098422288895, 0.026219593361020088, -0.03794801980257034, -0.08398303389549255, 0.0042872740887105465, 0.0438043586909771, -0.04352840781211853, -0.014079848304390907], [-0.025523044168949127, 0.13227054476737976, 0.0047478098422288895, 0.026219593361020088, -0.03794801980257034, -0.08398303389549255, 0.0042872740887105465, 0.0438043586909771, -0.04352840781211853, -0.014079848304390907], [-0.025523044168949127, 0.13227054476737976, 0.0047478098422288895, 0.026219593361020088, -0.03794801980257034, -0.08398303389549255, 0.0042872740887105465, 0.0438043586909771, -0.04352840781211853, -0.014079848304390907], [-0.025523044168949127, 0.13227054476737976, 0.0047478098422288895, 0.026219593361020088, -0.03794801980257034, -0.08398303389549255, 0.0042872740887105465, 0.0438043586909771, -0.04352840781211853, -0.014079848304390907], [-0.025523044168949127, 0.13227054476737976, 0.0047478098422288895, 0.026219593361020088, -0.03794801980257034, -0.08398303389549255, 0.0042872740887105465, 0.0438043586909771, -0.04352840781211853, -0.014079848304390907], [-0.025523044168949127, 0.13227054476737976, 0.0047478098422288895, 0.026219593361020088, -0.03794801980257034, -0.08398303389549255, 0.0042872740887105465, 0.0438043586909771, -0.04352840781211853, -0.014079848304390907], [-0.025523044168949127, 0.13227054476737976, 0.0047478098422288895, 0.026219593361020088, -0.03794801980257034, -0.08398303389549255, 0.0042872740887105465, 0.0438043586909771, -0.04352840781211853, -0.014079848304390907], [-0.025523044168949127, 0.13227054476737976, 0.0047478098422288895, 0.026219593361020088, -0.03794801980257034, -0.08398303389549255, 0.0042872740887105465, 0.0438043586909771, -0.04352840781211853, -0.014079848304390907], [-0.025523044168949127, 0.13227054476737976, 0.0047478098422288895, 0.026219593361020088, -0.03794801980257034, -0.08398303389549255, 0.0042872740887105465, 0.0438043586909771, -0.04352840781211853, -0.014079848304390907], [-0.025523044168949127, 0.13227054476737976, 0.0047478098422288895, 0.026219593361020088, -0.03794801980257034, -0.08398303389549255, 0.0042872740887105465, 0.0438043586909771, -0.04352840781211853, -0.014079848304390907], [-0.025523044168949127, 0.13227054476737976, 0.0047478098422288895, 0.026219593361020088, -0.03794801980257034, -0.08398303389549255, 0.0042872740887105465, 0.0438043586909771, -0.04352840781211853, -0.014079848304390907], [-0.025523044168949127, 0.13227054476737976, 0.0047478098422288895, 0.026219593361020088, -0.03794801980257034, -0.08398303389549255, 0.0042872740887105465, 0.0438043586909771, -0.04352840781211853, -0.014079848304390907], [-0.025523044168949127, 0.13227054476737976, 0.0047478098422288895, 0.026219593361020088, -0.03794801980257034, -0.08398303389549255, 0.0042872740887105465, 0.0438043586909771, -0.04352840781211853, -0.014079848304390907], [-0.025523044168949127, 0.13227054476737976, 0.0047478098422288895, 0.026219593361020088, -0.03794801980257034, -0.08398303389549255, 0.0042872740887105465, 0.0438043586909771, -0.04352840781211853, -0.014079848304390907], [-0.025523044168949127, 0.13227054476737976, 0.0047478098422288895, 0.026219593361020088, -0.03794801980257034, -0.08398303389549255, 0.0042872740887105465, 0.0438043586909771, -0.04352840781211853, -0.014079848304390907], [-0.025523044168949127, 0.13227054476737976, 0.0047478098422288895, 0.026219593361020088, -0.03794801980257034, -0.08398303389549255, 0.0042872740887105465, 0.0438043586909771, -0.04352840781211853, -0.014079848304390907], [-0.025523044168949127, 0.13227054476737976, 0.0047478098422288895, 0.026219593361020088, -0.03794801980257034, -0.08398303389549255, 0.0042872740887105465, 0.0438043586909771, -0.04352840781211853, -0.014079848304390907], [-0.025523044168949127, 0.13227054476737976, 0.0047478098422288895, 0.026219593361020088, -0.03794801980257034, -0.08398303389549255, 0.0042872740887105465, 0.0438043586909771, -0.04352840781211853, -0.014079848304390907], [-0.025523044168949127, 0.13227054476737976, 0.0047478098422288895, 0.026219593361020088, -0.03794801980257034, -0.08398303389549255, 0.0042872740887105465, 0.0438043586909771, -0.04352840781211853, -0.014079848304390907], [-0.025523044168949127, 0.13227054476737976, 0.0047478098422288895, 0.026219593361020088, -0.03794801980257034, -0.08398303389549255, 0.0042872740887105465, 0.0438043586909771, -0.04352840781211853, -0.014079848304390907], [-0.025523044168949127, 0.13227054476737976, 0.0047478098422288895, 0.026219593361020088, -0.03794801980257034, -0.08398303389549255, 0.0042872740887105465, 0.0438043586909771, -0.04352840781211853, -0.014079848304390907], [-0.025523044168949127, 0.13227054476737976, 0.0047478098422288895, 0.026219593361020088, -0.03794801980257034, -0.08398303389549255, 0.0042872740887105465, 0.0438043586909771, -0.04352840781211853, -0.014079848304390907], [-0.025523044168949127, 0.13227054476737976, 0.0047478098422288895, 0.026219593361020088, -0.03794801980257034, -0.08398303389549255, 0.0042872740887105465, 0.0438043586909771, -0.04352840781211853, -0.014079848304390907], [-0.025523044168949127, 0.13227054476737976, 0.0047478098422288895, 0.026219593361020088, -0.03794801980257034, -0.08398303389549255, 0.0042872740887105465, 0.0438043586909771, -0.04352840781211853, -0.014079848304390907], [-0.025523044168949127, 0.13227054476737976, 0.0047478098422288895, 0.026219593361020088, -0.03794801980257034, -0.08398303389549255, 0.0042872740887105465, 0.0438043586909771, -0.04352840781211853, -0.014079848304390907], [-0.025523044168949127, 0.13227054476737976, 0.0047478098422288895, 0.026219593361020088, -0.03794801980257034, -0.08398303389549255, 0.0042872740887105465, 0.0438043586909771, -0.04352840781211853, -0.014079848304390907], [-0.025523044168949127, 0.13227054476737976, 0.0047478098422288895, 0.026219593361020088, -0.03794801980257034, -0.08398303389549255, 0.0042872740887105465, 0.0438043586909771, -0.04352840781211853, -0.014079848304390907], [-0.025523044168949127, 0.13227054476737976, 0.0047478098422288895, 0.026219593361020088, -0.03794801980257034, -0.08398303389549255, 0.0042872740887105465, 0.0438043586909771, -0.04352840781211853, -0.014079848304390907], [-0.025523044168949127, 0.13227054476737976, 0.0047478098422288895, 0.026219593361020088, -0.03794801980257034, -0.08398303389549255, 0.0042872740887105465, 0.0438043586909771, -0.04352840781211853, -0.014079848304390907], [-0.025523044168949127, 0.13227054476737976, 0.0047478098422288895, 0.026219593361020088, -0.03794801980257034, -0.08398303389549255, 0.0042872740887105465, 0.0438043586909771, -0.04352840781211853, -0.014079848304390907], [-0.025523044168949127, 0.13227054476737976, 0.0047478098422288895, 0.026219593361020088, -0.03794801980257034, -0.08398303389549255, 0.0042872740887105465, 0.0438043586909771, -0.04352840781211853, -0.014079848304390907], [-0.025523044168949127, 0.13227054476737976, 0.0047478098422288895, 0.026219593361020088, -0.03794801980257034, -0.08398303389549255, 0.0042872740887105465, 0.0438043586909771, -0.04352840781211853, -0.014079848304390907], [-0.025523044168949127, 0.13227054476737976, 0.0047478098422288895, 0.026219593361020088, -0.03794801980257034, -0.08398303389549255, 0.0042872740887105465, 0.0438043586909771, -0.04352840781211853, -0.014079848304390907], [-0.025523044168949127, 0.13227054476737976, 0.0047478098422288895, 0.026219593361020088, -0.03794801980257034, -0.08398303389549255, 0.0042872740887105465, 0.0438043586909771, -0.04352840781211853, -0.014079848304390907], [-0.025523044168949127, 0.13227054476737976, 0.0047478098422288895, 0.026219593361020088, -0.03794801980257034, -0.08398303389549255, 0.0042872740887105465, 0.0438043586909771, -0.04352840781211853, -0.014079848304390907], [-0.025523044168949127, 0.13227054476737976, 0.0047478098422288895, 0.026219593361020088, -0.03794801980257034, -0.08398303389549255, 0.0042872740887105465, 0.0438043586909771, -0.04352840781211853, -0.014079848304390907], [-0.025523044168949127, 0.13227054476737976, 0.0047478098422288895, 0.026219593361020088, -0.03794801980257034, -0.08398303389549255, 0.0042872740887105465, 0.0438043586909771, -0.04352840781211853, -0.014079848304390907], [-0.025523044168949127, 0.13227054476737976, 0.0047478098422288895, 0.026219593361020088, -0.03794801980257034, -0.08398303389549255, 0.0042872740887105465, 0.0438043586909771, -0.04352840781211853, -0.014079848304390907], [-0.025523044168949127, 0.13227054476737976, 0.0047478098422288895, 0.026219593361020088, -0.03794801980257034, -0.08398303389549255, 0.0042872740887105465, 0.0438043586909771, -0.04352840781211853, -0.014079848304390907], [-0.025523044168949127, 0.13227054476737976, 0.0047478098422288895, 0.026219593361020088, -0.03794801980257034, -0.08398303389549255, 0.0042872740887105465, 0.0438043586909771, -0.04352840781211853, -0.014079848304390907], [-0.025523044168949127, 0.13227054476737976, 0.0047478098422288895, 0.026219593361020088, -0.03794801980257034, -0.08398303389549255, 0.0042872740887105465, 0.0438043586909771, -0.04352840781211853, -0.014079848304390907], [-0.025523044168949127, 0.13227054476737976, 0.0047478098422288895, 0.026219593361020088, -0.03794801980257034, -0.08398303389549255, 0.0042872740887105465, 0.0438043586909771, -0.04352840781211853, -0.014079848304390907], [-0.025523044168949127, 0.13227054476737976, 0.0047478098422288895, 0.026219593361020088, -0.03794801980257034, -0.08398303389549255, 0.0042872740887105465, 0.0438043586909771, -0.04352840781211853, -0.014079848304390907], [-0.025523044168949127, 0.13227054476737976, 0.0047478098422288895, 0.026219593361020088, -0.03794801980257034, -0.08398303389549255, 0.0042872740887105465, 0.0438043586909771, -0.04352840781211853, -0.014079848304390907], [-0.025523044168949127, 0.13227054476737976, 0.0047478098422288895, 0.026219593361020088, -0.03794801980257034, -0.08398303389549255, 0.0042872740887105465, 0.0438043586909771, -0.04352840781211853, -0.014079848304390907], [-0.025523044168949127, 0.13227054476737976, 0.0047478098422288895, 0.026219593361020088, -0.03794801980257034, -0.08398303389549255, 0.0042872740887105465, 0.0438043586909771, -0.04352840781211853, -0.014079848304390907], [-0.025523044168949127, 0.13227054476737976, 0.0047478098422288895, 0.026219593361020088, -0.03794801980257034, -0.08398303389549255, 0.0042872740887105465, 0.0438043586909771, -0.04352840781211853, -0.014079848304390907], [-0.025523044168949127, 0.13227054476737976, 0.0047478098422288895, 0.026219593361020088, -0.03794801980257034, -0.08398303389549255, 0.0042872740887105465, 0.0438043586909771, -0.04352840781211853, -0.014079848304390907], [-0.025523044168949127, 0.13227054476737976, 0.0047478098422288895, 0.026219593361020088, -0.03794801980257034, -0.08398303389549255, 0.0042872740887105465, 0.0438043586909771, -0.04352840781211853, -0.014079848304390907], [-0.025523044168949127, 0.13227054476737976, 0.0047478098422288895, 0.026219593361020088, -0.03794801980257034, -0.08398303389549255, 0.0042872740887105465, 0.0438043586909771, -0.04352840781211853, -0.014079848304390907], [-0.025523044168949127, 0.13227054476737976, 0.0047478098422288895, 0.026219593361020088, -0.03794801980257034, -0.08398303389549255, 0.0042872740887105465, 0.0438043586909771, -0.04352840781211853, -0.014079848304390907], [-0.025523044168949127, 0.13227054476737976, 0.0047478098422288895, 0.026219593361020088, -0.03794801980257034, -0.08398303389549255, 0.0042872740887105465, 0.0438043586909771, -0.04352840781211853, -0.014079848304390907], [-0.025523044168949127, 0.13227054476737976, 0.0047478098422288895, 0.026219593361020088, -0.03794801980257034, -0.08398303389549255, 0.0042872740887105465, 0.0438043586909771, -0.04352840781211853, -0.014079848304390907], [-0.025523044168949127, 0.13227054476737976, 0.0047478098422288895, 0.026219593361020088, -0.03794801980257034, -0.08398303389549255, 0.0042872740887105465, 0.0438043586909771, -0.04352840781211853, -0.014079848304390907], [-0.025523044168949127, 0.13227054476737976, 0.0047478098422288895, 0.026219593361020088, -0.03794801980257034, -0.08398303389549255, 0.0042872740887105465, 0.0438043586909771, -0.04352840781211853, -0.014079848304390907], [-0.025523044168949127, 0.13227054476737976, 0.0047478098422288895, 0.026219593361020088, -0.03794801980257034, -0.08398303389549255, 0.0042872740887105465, 0.0438043586909771, -0.04352840781211853, -0.014079848304390907], [-0.025523044168949127, 0.13227054476737976, 0.0047478098422288895, 0.026219593361020088, -0.03794801980257034, -0.08398303389549255, 0.0042872740887105465, 0.0438043586909771, -0.04352840781211853, -0.014079848304390907], [-0.025523044168949127, 0.13227054476737976, 0.0047478098422288895, 0.026219593361020088, -0.03794801980257034, -0.08398303389549255, 0.0042872740887105465, 0.0438043586909771, -0.04352840781211853, -0.014079848304390907], [-0.025523044168949127, 0.13227054476737976, 0.0047478098422288895, 0.026219593361020088, -0.03794801980257034, -0.08398303389549255, 0.0042872740887105465, 0.0438043586909771, -0.04352840781211853, -0.014079848304390907], [-0.025523044168949127, 0.13227054476737976, 0.0047478098422288895, 0.026219593361020088, -0.03794801980257034, -0.08398303389549255, 0.0042872740887105465, 0.0438043586909771, -0.04352840781211853, -0.014079848304390907], [-0.025523044168949127, 0.13227054476737976, 0.0047478098422288895, 0.026219593361020088, -0.03794801980257034, -0.08398303389549255, 0.0042872740887105465, 0.0438043586909771, -0.04352840781211853, -0.014079848304390907], [-0.025523044168949127, 0.13227054476737976, 0.0047478098422288895, 0.026219593361020088, -0.03794801980257034, -0.08398303389549255, 0.0042872740887105465, 0.0438043586909771, -0.04352840781211853, -0.014079848304390907], [-0.025523044168949127, 0.13227054476737976, 0.0047478098422288895, 0.026219593361020088, -0.03794801980257034, -0.08398303389549255, 0.0042872740887105465, 0.0438043586909771, -0.04352840781211853, -0.014079848304390907], [-0.025523044168949127, 0.13227054476737976, 0.0047478098422288895, 0.026219593361020088, -0.03794801980257034, -0.08398303389549255, 0.0042872740887105465, 0.0438043586909771, -0.04352840781211853, -0.014079848304390907], [-0.025523044168949127, 0.13227054476737976, 0.0047478098422288895, 0.026219593361020088, -0.03794801980257034, -0.08398303389549255, 0.0042872740887105465, 0.0438043586909771, -0.04352840781211853, -0.014079848304390907], [-0.025523044168949127, 0.13227054476737976, 0.0047478098422288895, 0.026219593361020088, -0.03794801980257034, -0.08398303389549255, 0.0042872740887105465, 0.0438043586909771, -0.04352840781211853, -0.014079848304390907], [-0.025523044168949127, 0.13227054476737976, 0.0047478098422288895, 0.026219593361020088, -0.03794801980257034, -0.08398303389549255, 0.0042872740887105465, 0.0438043586909771, -0.04352840781211853, -0.014079848304390907], [-0.025523044168949127, 0.13227054476737976, 0.0047478098422288895, 0.026219593361020088, -0.03794801980257034, -0.08398303389549255, 0.0042872740887105465, 0.0438043586909771, -0.04352840781211853, -0.014079848304390907], [-0.025523044168949127, 0.13227054476737976, 0.0047478098422288895, 0.026219593361020088, -0.03794801980257034, -0.08398303389549255, 0.0042872740887105465, 0.0438043586909771, -0.04352840781211853, -0.014079848304390907], [-0.025523044168949127, 0.13227054476737976, 0.0047478098422288895, 0.026219593361020088, -0.03794801980257034, -0.08398303389549255, 0.0042872740887105465, 0.0438043586909771, -0.04352840781211853, -0.014079848304390907], [-0.025523044168949127, 0.13227054476737976, 0.0047478098422288895, 0.026219593361020088, -0.03794801980257034, -0.08398303389549255, 0.0042872740887105465, 0.0438043586909771, -0.04352840781211853, -0.014079848304390907], [-0.025523044168949127, 0.13227054476737976, 0.0047478098422288895, 0.026219593361020088, -0.03794801980257034, -0.08398303389549255, 0.0042872740887105465, 0.0438043586909771, -0.04352840781211853, -0.014079848304390907], [-0.025523044168949127, 0.13227054476737976, 0.0047478098422288895, 0.026219593361020088, -0.03794801980257034, -0.08398303389549255, 0.0042872740887105465, 0.0438043586909771, -0.04352840781211853, -0.014079848304390907], [-0.025523044168949127, 0.13227054476737976, 0.0047478098422288895, 0.026219593361020088, -0.03794801980257034, -0.08398303389549255, 0.0042872740887105465, 0.0438043586909771, -0.04352840781211853, -0.014079848304390907], [-0.025523044168949127, 0.13227054476737976, 0.0047478098422288895, 0.026219593361020088, -0.03794801980257034, -0.08398303389549255, 0.0042872740887105465, 0.0438043586909771, -0.04352840781211853, -0.014079848304390907], [-0.025523044168949127, 0.13227054476737976, 0.0047478098422288895, 0.026219593361020088, -0.03794801980257034, -0.08398303389549255, 0.0042872740887105465, 0.0438043586909771, -0.04352840781211853, -0.014079848304390907], [-0.025523044168949127, 0.13227054476737976, 0.0047478098422288895, 0.026219593361020088, -0.03794801980257034, -0.08398303389549255, 0.0042872740887105465, 0.0438043586909771, -0.04352840781211853, -0.014079848304390907], [-0.025523044168949127, 0.13227054476737976, 0.0047478098422288895, 